[
  {
    "id": "000_model.embed_tokens",
    "order": 1,
    "module_name": "model.embed_tokens",
    "module_type": "Embedding",
    "module_class": "Embedding",
    "inputs": [
      {
        "name": "model.embed_tokens_input_0",
        "shape": [
          1,
          5
        ],
        "dtype": "torch.int64",
        "device": "cpu",
        "requires_grad": false,
        "numel": 5,
        "min": 1,
        "max": 6345,
        "first_10": [
          1,
          2694,
          5465,
          471,
          6345
        ],
        "last_10": [
          1,
          2694,
          5465,
          471,
          6345
        ],
        "zero_count": 0,
        "mean": 2995.199951171875,
        "std": 2861.320068359375,
        "norm": 8809.3544921875,
        "nan_count": 0,
        "inf_count": 0
      }
    ],
    "outputs": [
      {
        "name": "model.embed_tokens_output",
        "shape": [
          1,
          5,
          576
        ],
        "dtype": "torch.float32",
        "device": "cpu",
        "requires_grad": false,
        "numel": 2880,
        "min": -0.25732421875,
        "max": 0.2003173828125,
        "first_10": [
          -0.105712890625,
          -0.023468017578125,
          0.051483154296875,
          0.0313720703125,
          0.047332763671875,
          -0.0167999267578125,
          -0.0188751220703125,
          0.01373291015625,
          -0.002361297607421875,
          0.005970001220703125
        ],
        "last_10": [
          0.035400390625,
          -0.050384521484375,
          -0.03790283203125,
          0.0203399658203125,
          -0.0284423828125,
          -0.058197021484375,
          0.059600830078125,
          0.018463134765625,
          0.027587890625,
          0.08441162109375
        ],
        "zero_count": 0,
        "mean": -0.00038579339161515236,
        "std": 0.05021059513092041,
        "norm": 2.69419527053833,
        "nan_count": 0,
        "inf_count": 0
      }
    ],
    "parameters": {
      "weight": {
        "name": "model.embed_tokens_weight",
        "shape": [
          32000,
          576
        ],
        "dtype": "torch.float32",
        "device": "cpu",
        "requires_grad": true,
        "numel": 18432000,
        "min": -0.338134765625,
        "max": 0.32666015625,
        "first_10": [
          -0.03887939453125,
          0.005893707275390625,
          0.00559234619140625,
          0.023040771484375,
          0.040069580078125,
          -0.042144775390625,
          -0.044403076171875,
          -0.0538330078125,
          -0.0206146240234375,
          -0.034515380859375
        ],
        "last_10": [
          -0.00321197509765625,
          -0.06219482421875,
          0.031341552734375,
          0.08843994140625,
          -0.03399658203125,
          -0.0048980712890625,
          -0.031463623046875,
          -0.052520751953125,
          0.09637451171875,
          -0.0178375244140625
        ],
        "zero_count": 10,
        "mean": 0.001268025953322649,
        "std": 0.05525241792201996,
        "norm": 237.0748748779297,
        "nan_count": 0,
        "inf_count": 0
      }
    }
  },
  {
    "id": "001_model.layers.0.input_layernorm",
    "order": 2,
    "module_name": "model.layers.0.input_layernorm",
    "module_type": "LlamaRMSNorm",
    "module_class": "LlamaRMSNorm",
    "inputs": [
      {
        "name": "model.layers.0.input_layernorm_input_0",
        "shape": [
          1,
          5,
          576
        ],
        "dtype": "torch.float32",
        "device": "cpu",
        "requires_grad": false,
        "numel": 2880,
        "min": -0.25732421875,
        "max": 0.2003173828125,
        "first_10": [
          -0.105712890625,
          -0.023468017578125,
          0.051483154296875,
          0.0313720703125,
          0.047332763671875,
          -0.0167999267578125,
          -0.0188751220703125,
          0.01373291015625,
          -0.002361297607421875,
          0.005970001220703125
        ],
        "last_10": [
          0.035400390625,
          -0.050384521484375,
          -0.03790283203125,
          0.0203399658203125,
          -0.0284423828125,
          -0.058197021484375,
          0.059600830078125,
          0.018463134765625,
          0.027587890625,
          0.08441162109375
        ],
        "zero_count": 0,
        "mean": -0.00038579339161515236,
        "std": 0.05021059513092041,
        "norm": 2.69419527053833,
        "nan_count": 0,
        "inf_count": 0
      }
    ],
    "outputs": [
      {
        "name": "model.layers.0.input_layernorm_output",
        "shape": [
          1,
          5,
          576
        ],
        "dtype": "torch.float32",
        "device": "cpu",
        "requires_grad": false,
        "numel": 2880,
        "min": -3.7838294506073,
        "max": 4.889822483062744,
        "first_10": [
          -0.5468090176582336,
          -0.039798445999622345,
          0.05963956564664841,
          -0.07286541908979416,
          0.22328203916549683,
          -0.033767182379961014,
          -0.04389414191246033,
          0.022616326808929443,
          0.004610024858266115,
          0.010614580474793911
        ],
        "last_10": [
          0.054807838052511215,
          -0.06824830919504166,
          -0.042233049869537354,
          -0.02254212275147438,
          -0.039002660661935806,
          0.057714108377695084,
          0.06274029612541199,
          0.02324334718286991,
          -0.0278537068516016,
          0.10878922045230865
        ],
        "zero_count": 0,
        "mean": -0.00027210795087739825,
        "std": 0.19723962247371674,
        "norm": 10.583161354064941,
        "nan_count": 0,
        "inf_count": 0
      }
    ],
    "parameters": {
      "weight": {
        "name": "model.layers.0.input_layernorm_weight",
        "shape": [
          576
        ],
        "dtype": "torch.float32",
        "device": "cpu",
        "requires_grad": true,
        "numel": 576,
        "min": -0.8837890625,
        "max": 0.744140625,
        "first_10": [
          0.2191162109375,
          0.07183837890625,
          0.049072265625,
          -0.098388671875,
          0.1998291015625,
          0.08514404296875,
          0.0985107421875,
          0.06976318359375,
          -0.08270263671875,
          0.0753173828125
        ],
        "last_10": [
          0.07904052734375,
          0.06915283203125,
          0.056884765625,
          -0.05657958984375,
          0.07000732421875,
          -0.050628662109375,
          0.053741455078125,
          0.06427001953125,
          -0.051544189453125,
          0.0657958984375
        ],
        "zero_count": 0,
        "mean": 0.041260991245508194,
        "std": 0.1123996153473854,
        "norm": 2.871408224105835,
        "nan_count": 0,
        "inf_count": 0
      }
    }
  },
  {
    "id": "002_model.layers.0.self_attn.q_proj",
    "order": 3,
    "module_name": "model.layers.0.self_attn.q_proj",
    "module_type": "Linear",
    "module_class": "Linear",
    "inputs": [
      {
        "name": "model.layers.0.self_attn.q_proj_input_0",
        "shape": [
          1,
          5,
          576
        ],
        "dtype": "torch.float32",
        "device": "cpu",
        "requires_grad": false,
        "numel": 2880,
        "min": -3.7838294506073,
        "max": 4.889822483062744,
        "first_10": [
          -0.5468090176582336,
          -0.039798445999622345,
          0.05963956564664841,
          -0.07286541908979416,
          0.22328203916549683,
          -0.033767182379961014,
          -0.04389414191246033,
          0.022616326808929443,
          0.004610024858266115,
          0.010614580474793911
        ],
        "last_10": [
          0.054807838052511215,
          -0.06824830919504166,
          -0.042233049869537354,
          -0.02254212275147438,
          -0.039002660661935806,
          0.057714108377695084,
          0.06274029612541199,
          0.02324334718286991,
          -0.0278537068516016,
          0.10878922045230865
        ],
        "zero_count": 0,
        "mean": -0.00027210795087739825,
        "std": 0.19723962247371674,
        "norm": 10.583161354064941,
        "nan_count": 0,
        "inf_count": 0
      }
    ],
    "outputs": [
      {
        "name": "model.layers.0.self_attn.q_proj_output",
        "shape": [
          1,
          5,
          576
        ],
        "dtype": "torch.float32",
        "device": "cpu",
        "requires_grad": false,
        "numel": 2880,
        "min": -17.78073501586914,
        "max": 19.02470588684082,
        "first_10": [
          0.5033838152885437,
          0.5412465333938599,
          0.14994597434997559,
          -0.008902221918106079,
          -0.1874096691608429,
          0.176373690366745,
          -0.44474470615386963,
          0.03787432238459587,
          -0.31698372960090637,
          -0.2557930052280426
        ],
        "last_10": [
          1.9102526903152466,
          -6.844848394393921e-05,
          0.2064456045627594,
          -0.31157732009887695,
          1.6379942893981934,
          -0.36878344416618347,
          0.1196432113647461,
          0.4552249312400818,
          -0.14200741052627563,
          -0.06851853430271149
        ],
        "zero_count": 0,
        "mean": 0.07031580805778503,
        "std": 1.1799068450927734,
        "norm": 63.421810150146484,
        "nan_count": 0,
        "inf_count": 0
      }
    ],
    "parameters": {
      "weight": {
        "name": "model.layers.0.self_attn.q_proj_weight",
        "shape": [
          576,
          576
        ],
        "dtype": "torch.float32",
        "device": "cpu",
        "requires_grad": true,
        "numel": 331776,
        "min": -2.072265625,
        "max": 1.875,
        "first_10": [
          0.00018262863159179688,
          -0.0248260498046875,
          -0.042633056640625,
          0.038330078125,
          -0.0032100677490234375,
          0.06719970703125,
          0.055694580078125,
          0.0028667449951171875,
          -0.041717529296875,
          -0.03900146484375
        ],
        "last_10": [
          -0.0212860107421875,
          0.0002760887145996094,
          0.07080078125,
          -0.07012939453125,
          -0.007236480712890625,
          -0.04266357421875,
          -0.03173828125,
          0.008270263671875,
          -0.08782958984375,
          0.0026378631591796875
        ],
        "zero_count": 0,
        "mean": -0.00012594542931765318,
        "std": 0.09020894020795822,
        "norm": 51.96044921875,
        "nan_count": 0,
        "inf_count": 0
      }
    }
  },
  {
    "id": "003_model.layers.0.self_attn.k_proj",
    "order": 4,
    "module_name": "model.layers.0.self_attn.k_proj",
    "module_type": "Linear",
    "module_class": "Linear",
    "inputs": [
      {
        "name": "model.layers.0.self_attn.k_proj_input_0",
        "shape": [
          1,
          5,
          576
        ],
        "dtype": "torch.float32",
        "device": "cpu",
        "requires_grad": false,
        "numel": 2880,
        "min": -3.7838294506073,
        "max": 4.889822483062744,
        "first_10": [
          -0.5468090176582336,
          -0.039798445999622345,
          0.05963956564664841,
          -0.07286541908979416,
          0.22328203916549683,
          -0.033767182379961014,
          -0.04389414191246033,
          0.022616326808929443,
          0.004610024858266115,
          0.010614580474793911
        ],
        "last_10": [
          0.054807838052511215,
          -0.06824830919504166,
          -0.042233049869537354,
          -0.02254212275147438,
          -0.039002660661935806,
          0.057714108377695084,
          0.06274029612541199,
          0.02324334718286991,
          -0.0278537068516016,
          0.10878922045230865
        ],
        "zero_count": 0,
        "mean": -0.00027210795087739825,
        "std": 0.19723962247371674,
        "norm": 10.583161354064941,
        "nan_count": 0,
        "inf_count": 0
      }
    ],
    "outputs": [
      {
        "name": "model.layers.0.self_attn.k_proj_output",
        "shape": [
          1,
          5,
          192
        ],
        "dtype": "torch.float32",
        "device": "cpu",
        "requires_grad": false,
        "numel": 960,
        "min": -5.468654632568359,
        "max": 7.888033866882324,
        "first_10": [
          0.7571072578430176,
          1.4551655054092407,
          -0.005290508270263672,
          0.7294079065322876,
          -1.4618819952011108,
          0.385603129863739,
          -0.6978878378868103,
          1.6107616424560547,
          -0.5896987318992615,
          0.29151690006256104
        ],
        "last_10": [
          0.21816307306289673,
          2.906808376312256,
          -0.19064120948314667,
          0.4349590837955475,
          -0.5005133152008057,
          -0.5383667945861816,
          0.7183098793029785,
          -0.2744084596633911,
          -0.2724781334400177,
          0.14800387620925903
        ],
        "zero_count": 0,
        "mean": 0.0831221416592598,
        "std": 1.0739083290100098,
        "norm": 33.35607147216797,
        "nan_count": 0,
        "inf_count": 0
      }
    ],
    "parameters": {
      "weight": {
        "name": "model.layers.0.self_attn.k_proj_weight",
        "shape": [
          192,
          576
        ],
        "dtype": "torch.float32",
        "device": "cpu",
        "requires_grad": true,
        "numel": 110592,
        "min": -1.18359375,
        "max": 1.462890625,
        "first_10": [
          0.2314453125,
          0.1094970703125,
          0.0265045166015625,
          -0.30078125,
          0.0224609375,
          -0.25439453125,
          -0.04559326171875,
          -0.1668701171875,
          0.01197052001953125,
          0.031707763671875
        ],
        "last_10": [
          -0.053192138671875,
          -0.158203125,
          0.1083984375,
          0.07769775390625,
          -0.03326416015625,
          -0.017974853515625,
          0.10772705078125,
          0.2410888671875,
          -0.2083740234375,
          0.1888427734375
        ],
        "zero_count": 0,
        "mean": -0.0001435753656551242,
        "std": 0.10589440912008286,
        "norm": 35.215511322021484,
        "nan_count": 0,
        "inf_count": 0
      }
    }
  },
  {
    "id": "004_model.layers.0.self_attn.v_proj",
    "order": 5,
    "module_name": "model.layers.0.self_attn.v_proj",
    "module_type": "Linear",
    "module_class": "Linear",
    "inputs": [
      {
        "name": "model.layers.0.self_attn.v_proj_input_0",
        "shape": [
          1,
          5,
          576
        ],
        "dtype": "torch.float32",
        "device": "cpu",
        "requires_grad": false,
        "numel": 2880,
        "min": -3.7838294506073,
        "max": 4.889822483062744,
        "first_10": [
          -0.5468090176582336,
          -0.039798445999622345,
          0.05963956564664841,
          -0.07286541908979416,
          0.22328203916549683,
          -0.033767182379961014,
          -0.04389414191246033,
          0.022616326808929443,
          0.004610024858266115,
          0.010614580474793911
        ],
        "last_10": [
          0.054807838052511215,
          -0.06824830919504166,
          -0.042233049869537354,
          -0.02254212275147438,
          -0.039002660661935806,
          0.057714108377695084,
          0.06274029612541199,
          0.02324334718286991,
          -0.0278537068516016,
          0.10878922045230865
        ],
        "zero_count": 0,
        "mean": -0.00027210795087739825,
        "std": 0.19723962247371674,
        "norm": 10.583161354064941,
        "nan_count": 0,
        "inf_count": 0
      }
    ],
    "outputs": [
      {
        "name": "model.layers.0.self_attn.v_proj_output",
        "shape": [
          1,
          5,
          192
        ],
        "dtype": "torch.float32",
        "device": "cpu",
        "requires_grad": false,
        "numel": 960,
        "min": -0.503411591053009,
        "max": 0.22186753153800964,
        "first_10": [
          0.15630188584327698,
          0.018999285995960236,
          -0.004712186753749847,
          -0.02590961381793022,
          0.023915179073810577,
          -0.00251717958599329,
          0.014611541293561459,
          -0.015919966623187065,
          0.0029330477118492126,
          0.009663678705692291
        ],
        "last_10": [
          0.030993323773145676,
          0.05132937431335449,
          -0.06437966227531433,
          -0.07131553441286087,
          0.05504101142287254,
          -0.030938612297177315,
          -0.017660092562437057,
          -0.012400008738040924,
          0.030925674363970757,
          -0.06769208610057831
        ],
        "zero_count": 0,
        "mean": -0.003677652683109045,
        "std": 0.052048563957214355,
        "norm": 1.6158483028411865,
        "nan_count": 0,
        "inf_count": 0
      }
    ],
    "parameters": {
      "weight": {
        "name": "model.layers.0.self_attn.v_proj_weight",
        "shape": [
          192,
          576
        ],
        "dtype": "torch.float32",
        "device": "cpu",
        "requires_grad": true,
        "numel": 110592,
        "min": -0.1318359375,
        "max": 0.1346435546875,
        "first_10": [
          -0.005916595458984375,
          0.01409149169921875,
          -0.040252685546875,
          0.0209197998046875,
          0.004058837890625,
          0.047821044921875,
          0.031402587890625,
          -0.0082244873046875,
          0.01462554931640625,
          -0.024688720703125
        ],
        "last_10": [
          -0.018218994140625,
          0.02972412109375,
          0.03265380859375,
          -0.0085296630859375,
          -0.0467529296875,
          -0.01187896728515625,
          -0.008331298828125,
          -0.022491455078125,
          -0.0036373138427734375,
          0.0235137939453125
        ],
        "zero_count": 0,
        "mean": -1.8869242921937257e-05,
        "std": 0.022299665957689285,
        "norm": 7.415821552276611,
        "nan_count": 0,
        "inf_count": 0
      }
    }
  },
  {
    "id": "005_model.layers.0.self_attn.o_proj",
    "order": 6,
    "module_name": "model.layers.0.self_attn.o_proj",
    "module_type": "Linear",
    "module_class": "Linear",
    "inputs": [
      {
        "name": "model.layers.0.self_attn.o_proj_input_0",
        "shape": [
          1,
          5,
          576
        ],
        "dtype": "torch.float32",
        "device": "cpu",
        "requires_grad": false,
        "numel": 2880,
        "min": -0.503411591053009,
        "max": 0.19958823919296265,
        "first_10": [
          0.15630188584327698,
          0.018999285995960236,
          -0.004712186753749847,
          -0.02590961381793022,
          0.023915179073810577,
          -0.00251717958599329,
          0.014611541293561459,
          -0.015919966623187065,
          0.0029330477118492126,
          0.009663678705692291
        ],
        "last_10": [
          0.0357741080224514,
          0.004328164272010326,
          -0.028123369440436363,
          -0.01766037568449974,
          0.03872086480259895,
          -0.03282354772090912,
          0.003436599625274539,
          -0.02456708624958992,
          0.019190825521945953,
          -0.04683038964867592
        ],
        "zero_count": 0,
        "mean": -0.005087066907435656,
        "std": 0.04907672107219696,
        "norm": 2.6473896503448486,
        "nan_count": 0,
        "inf_count": 0
      }
    ],
    "outputs": [
      {
        "name": "model.layers.0.self_attn.o_proj_output",
        "shape": [
          1,
          5,
          576
        ],
        "dtype": "torch.float32",
        "device": "cpu",
        "requires_grad": false,
        "numel": 2880,
        "min": -0.37796443700790405,
        "max": 0.3705923855304718,
        "first_10": [
          -0.025306524708867073,
          -0.021873250603675842,
          0.0016701433341950178,
          0.03850219398736954,
          0.2911089360713959,
          0.0014683189801871777,
          -0.08217266201972961,
          0.007354758679866791,
          -0.01887727901339531,
          0.037398651242256165
        ],
        "last_10": [
          0.007002907805144787,
          0.02101861871778965,
          0.00745999114587903,
          0.004222952760756016,
          0.013410990126430988,
          -0.008463917300105095,
          -0.003007036866620183,
          0.02293911948800087,
          -0.01702866517007351,
          0.007599536329507828
        ],
        "zero_count": 0,
        "mean": -0.0011968424078077078,
        "std": 0.033605530858039856,
        "norm": 1.8042925596237183,
        "nan_count": 0,
        "inf_count": 0
      }
    ],
    "parameters": {
      "weight": {
        "name": "model.layers.0.self_attn.o_proj_weight",
        "shape": [
          576,
          576
        ],
        "dtype": "torch.float32",
        "device": "cpu",
        "requires_grad": true,
        "numel": 331776,
        "min": -0.312744140625,
        "max": 0.289794921875,
        "first_10": [
          0.00213623046875,
          0.04205322265625,
          -0.037353515625,
          0.0132904052734375,
          -0.00032806396484375,
          -0.0511474609375,
          0.019622802734375,
          0.0174560546875,
          0.02606201171875,
          0.0063934326171875
        ],
        "last_10": [
          0.029022216796875,
          -0.00335693359375,
          -0.007747650146484375,
          0.01456451416015625,
          -0.035552978515625,
          0.0283355712890625,
          0.0230712890625,
          0.0102996826171875,
          -0.0120391845703125,
          -0.021209716796875
        ],
        "zero_count": 0,
        "mean": 1.2743140359816607e-05,
        "std": 0.02445749007165432,
        "norm": 14.087532043457031,
        "nan_count": 0,
        "inf_count": 0
      }
    }
  },
  {
    "id": "006_model.layers.0.self_attn",
    "order": 7,
    "module_name": "model.layers.0.self_attn",
    "module_type": "LlamaSdpaAttention",
    "module_class": "LlamaSdpaAttention",
    "inputs": [],
    "outputs": [
      {
        "name": "model.layers.0.self_attn_output_0",
        "shape": [
          1,
          5,
          576
        ],
        "dtype": "torch.float32",
        "device": "cpu",
        "requires_grad": false,
        "numel": 2880,
        "min": -0.37796443700790405,
        "max": 0.3705923855304718,
        "first_10": [
          -0.025306524708867073,
          -0.021873250603675842,
          0.0016701433341950178,
          0.03850219398736954,
          0.2911089360713959,
          0.0014683189801871777,
          -0.08217266201972961,
          0.007354758679866791,
          -0.01887727901339531,
          0.037398651242256165
        ],
        "last_10": [
          0.007002907805144787,
          0.02101861871778965,
          0.00745999114587903,
          0.004222952760756016,
          0.013410990126430988,
          -0.008463917300105095,
          -0.003007036866620183,
          0.02293911948800087,
          -0.01702866517007351,
          0.007599536329507828
        ],
        "zero_count": 0,
        "mean": -0.0011968424078077078,
        "std": 0.033605530858039856,
        "norm": 1.8042925596237183,
        "nan_count": 0,
        "inf_count": 0
      },
      {
        "name": "model.layers.0.self_attn_output_1",
        "shape": [
          1,
          9,
          5,
          5
        ],
        "dtype": "torch.float32",
        "device": "cpu",
        "requires_grad": false,
        "numel": 225,
        "min": 0.0,
        "max": 1.0,
        "first_10": [
          1.0,
          0.0,
          0.0,
          0.0,
          0.0,
          0.42360374331474304,
          0.5763962864875793,
          0.0,
          0.0,
          0.0
        ],
        "last_10": [
          0.30628684163093567,
          0.09834342449903488,
          0.10081274062395096,
          0.4945569634437561,
          0.0,
          0.051082879304885864,
          0.10217591375112534,
          0.12380462139844894,
          0.5011882185935974,
          0.2217484414577484
        ],
        "zero_count": 90,
        "mean": 0.20000000298023224,
        "std": 0.2661985158920288,
        "norm": 4.9872846603393555,
        "nan_count": 0,
        "inf_count": 0
      }
    ],
    "parameters": {}
  },
  {
    "id": "007_model.layers.0.post_attention_layernorm",
    "order": 8,
    "module_name": "model.layers.0.post_attention_layernorm",
    "module_type": "LlamaRMSNorm",
    "module_class": "LlamaRMSNorm",
    "inputs": [
      {
        "name": "model.layers.0.post_attention_layernorm_input_0",
        "shape": [
          1,
          5,
          576
        ],
        "dtype": "torch.float32",
        "device": "cpu",
        "requires_grad": false,
        "numel": 2880,
        "min": -0.3776847720146179,
        "max": 0.4604824185371399,
        "first_10": [
          -0.13101941347122192,
          -0.04534126818180084,
          0.053153298795223236,
          0.06987426429986954,
          0.3384416997432709,
          -0.015331607311964035,
          -0.10104778409004211,
          0.02108766883611679,
          -0.021238576620817184,
          0.04336865246295929
        ],
        "last_10": [
          0.04240329936146736,
          -0.02936590276658535,
          -0.030442841351032257,
          0.02456291764974594,
          -0.015031392686069012,
          -0.06666094064712524,
          0.056593794375658035,
          0.04140225425362587,
          0.01055922545492649,
          0.09201115369796753
        ],
        "zero_count": 0,
        "mean": -0.001582635915838182,
        "std": 0.05958574265241623,
        "norm": 3.1982791423797607,
        "nan_count": 0,
        "inf_count": 0
      }
    ],
    "outputs": [
      {
        "name": "model.layers.0.post_attention_layernorm_output",
        "shape": [
          1,
          5,
          576
        ],
        "dtype": "torch.float32",
        "device": "cpu",
        "requires_grad": false,
        "numel": 2880,
        "min": -1.3347408771514893,
        "max": 1.365454077720642,
        "first_10": [
          -0.5636857151985168,
          -0.16461291909217834,
          0.19901920855045319,
          0.26324528455734253,
          0.6703099608421326,
          -0.05701792240142822,
          -0.36621883511543274,
          0.07256273180246353,
          -0.07527357339859009,
          0.14713110029697418
        ],
        "last_10": [
          0.16160224378108978,
          -0.10763094574213028,
          -0.11582112312316895,
          0.08713863044977188,
          -0.055452652275562286,
          -0.23154841363430023,
          0.2070559710264206,
          0.15760685503482819,
          0.039368197321891785,
          0.34064269065856934
        ],
        "zero_count": 0,
        "mean": -0.0062288385815918446,
        "std": 0.20682796835899353,
        "norm": 11.102660179138184,
        "nan_count": 0,
        "inf_count": 0
      }
    ],
    "parameters": {
      "weight": {
        "name": "model.layers.0.post_attention_layernorm_weight",
        "shape": [
          576
        ],
        "dtype": "torch.float32",
        "device": "cpu",
        "requires_grad": true,
        "numel": 576,
        "min": -0.0009794235229492188,
        "max": 0.51708984375,
        "first_10": [
          0.2493896484375,
          0.21044921875,
          0.217041015625,
          0.2183837890625,
          0.11480712890625,
          0.215576171875,
          0.2100830078125,
          0.199462890625,
          0.2054443359375,
          0.1966552734375
        ],
        "last_10": [
          0.213623046875,
          0.2054443359375,
          0.2132568359375,
          0.1988525390625,
          0.206787109375,
          0.1947021484375,
          0.205078125,
          0.21337890625,
          0.208984375,
          0.20751953125
        ],
        "zero_count": 0,
        "mean": 0.2110365331172943,
        "std": 0.023199081420898438,
        "norm": 5.095335006713867,
        "nan_count": 0,
        "inf_count": 0
      }
    }
  },
  {
    "id": "008_model.layers.0.mlp.gate_proj",
    "order": 9,
    "module_name": "model.layers.0.mlp.gate_proj",
    "module_type": "Linear",
    "module_class": "Linear",
    "inputs": [
      {
        "name": "model.layers.0.mlp.gate_proj_input_0",
        "shape": [
          1,
          5,
          576
        ],
        "dtype": "torch.float32",
        "device": "cpu",
        "requires_grad": false,
        "numel": 2880,
        "min": -1.3347408771514893,
        "max": 1.365454077720642,
        "first_10": [
          -0.5636857151985168,
          -0.16461291909217834,
          0.19901920855045319,
          0.26324528455734253,
          0.6703099608421326,
          -0.05701792240142822,
          -0.36621883511543274,
          0.07256273180246353,
          -0.07527357339859009,
          0.14713110029697418
        ],
        "last_10": [
          0.16160224378108978,
          -0.10763094574213028,
          -0.11582112312316895,
          0.08713863044977188,
          -0.055452652275562286,
          -0.23154841363430023,
          0.2070559710264206,
          0.15760685503482819,
          0.039368197321891785,
          0.34064269065856934
        ],
        "zero_count": 0,
        "mean": -0.0062288385815918446,
        "std": 0.20682796835899353,
        "norm": 11.102660179138184,
        "nan_count": 0,
        "inf_count": 0
      }
    ],
    "outputs": [
      {
        "name": "model.layers.0.mlp.gate_proj_output",
        "shape": [
          1,
          5,
          1536
        ],
        "dtype": "torch.float32",
        "device": "cpu",
        "requires_grad": false,
        "numel": 7680,
        "min": -5.178604602813721,
        "max": 1.6373454332351685,
        "first_10": [
          0.774133563041687,
          -0.1935971975326538,
          0.42558181285858154,
          0.5865437388420105,
          -0.17026937007904053,
          0.4110816717147827,
          0.3665488362312317,
          0.5453060865402222,
          0.6536177396774292,
          0.5717343091964722
        ],
        "last_10": [
          -0.36957669258117676,
          -0.19450154900550842,
          0.44178521633148193,
          0.15369999408721924,
          0.09580833464860916,
          0.11341048777103424,
          0.03034321591258049,
          0.5158427357673645,
          -0.22160525619983673,
          0.00794003065675497
        ],
        "zero_count": 0,
        "mean": 0.1349673718214035,
        "std": 0.3834703862667084,
        "norm": 35.62433624267578,
        "nan_count": 0,
        "inf_count": 0
      }
    ],
    "parameters": {
      "weight": {
        "name": "model.layers.0.mlp.gate_proj_weight",
        "shape": [
          1536,
          576
        ],
        "dtype": "torch.float32",
        "device": "cpu",
        "requires_grad": true,
        "numel": 884736,
        "min": -0.46435546875,
        "max": 0.662109375,
        "first_10": [
          -0.05572509765625,
          0.025604248046875,
          0.0056915283203125,
          0.04302978515625,
          0.0069122314453125,
          0.048980712890625,
          -0.0038967132568359375,
          0.030426025390625,
          -0.042816162109375,
          -0.037017822265625
        ],
        "last_10": [
          -0.010650634765625,
          -0.0274505615234375,
          -0.0286712646484375,
          -0.0946044921875,
          -0.050018310546875,
          -0.0184173583984375,
          0.056427001953125,
          -0.053619384765625,
          0.06524658203125,
          0.03155517578125
        ],
        "zero_count": 0,
        "mean": 0.00010653605568222702,
        "std": 0.04519469290971756,
        "norm": 42.510494232177734,
        "nan_count": 0,
        "inf_count": 0
      }
    }
  },
  {
    "id": "009_model.layers.0.mlp.act_fn",
    "order": 10,
    "module_name": "model.layers.0.mlp.act_fn",
    "module_type": "SiLU",
    "module_class": "SiLU",
    "inputs": [
      {
        "name": "model.layers.0.mlp.act_fn_input_0",
        "shape": [
          1,
          5,
          1536
        ],
        "dtype": "torch.float32",
        "device": "cpu",
        "requires_grad": false,
        "numel": 7680,
        "min": -5.178604602813721,
        "max": 1.6373454332351685,
        "first_10": [
          0.774133563041687,
          -0.1935971975326538,
          0.42558181285858154,
          0.5865437388420105,
          -0.17026937007904053,
          0.4110816717147827,
          0.3665488362312317,
          0.5453060865402222,
          0.6536177396774292,
          0.5717343091964722
        ],
        "last_10": [
          -0.36957669258117676,
          -0.19450154900550842,
          0.44178521633148193,
          0.15369999408721924,
          0.09580833464860916,
          0.11341048777103424,
          0.03034321591258049,
          0.5158427357673645,
          -0.22160525619983673,
          0.00794003065675497
        ],
        "zero_count": 0,
        "mean": 0.1349673718214035,
        "std": 0.3834703862667084,
        "norm": 35.62433624267578,
        "nan_count": 0,
        "inf_count": 0
      }
    ],
    "outputs": [
      {
        "name": "model.layers.0.mlp.act_fn_output",
        "shape": [
          1,
          5,
          1536
        ],
        "dtype": "torch.float32",
        "device": "cpu",
        "requires_grad": false,
        "numel": 7680,
        "min": -0.2784510552883148,
        "max": 1.3707420825958252,
        "first_10": [
          0.5298281311988831,
          -0.08745779097080231,
          0.25739961862564087,
          0.3768964111804962,
          -0.07790423184633255,
          0.2472028285264969,
          0.21649283170700073,
          0.3452037572860718,
          0.4299662411212921,
          0.365431547164917
        ],
        "last_10": [
          -0.15102504193782806,
          -0.08782275766134262,
          0.26890772581100464,
          0.08274431526660919,
          0.05019722133874893,
          0.05991728603839874,
          0.015401767566800117,
          0.3230079114437103,
          -0.0985754057765007,
          0.003985776100307703
        ],
        "zero_count": 0,
        "mean": 0.10237645357847214,
        "std": 0.18072928488254547,
        "norm": 18.20201301574707,
        "nan_count": 0,
        "inf_count": 0
      }
    ],
    "parameters": {}
  },
  {
    "id": "010_model.layers.0.mlp.up_proj",
    "order": 11,
    "module_name": "model.layers.0.mlp.up_proj",
    "module_type": "Linear",
    "module_class": "Linear",
    "inputs": [
      {
        "name": "model.layers.0.mlp.up_proj_input_0",
        "shape": [
          1,
          5,
          576
        ],
        "dtype": "torch.float32",
        "device": "cpu",
        "requires_grad": false,
        "numel": 2880,
        "min": -1.3347408771514893,
        "max": 1.365454077720642,
        "first_10": [
          -0.5636857151985168,
          -0.16461291909217834,
          0.19901920855045319,
          0.26324528455734253,
          0.6703099608421326,
          -0.05701792240142822,
          -0.36621883511543274,
          0.07256273180246353,
          -0.07527357339859009,
          0.14713110029697418
        ],
        "last_10": [
          0.16160224378108978,
          -0.10763094574213028,
          -0.11582112312316895,
          0.08713863044977188,
          -0.055452652275562286,
          -0.23154841363430023,
          0.2070559710264206,
          0.15760685503482819,
          0.039368197321891785,
          0.34064269065856934
        ],
        "zero_count": 0,
        "mean": -0.0062288385815918446,
        "std": 0.20682796835899353,
        "norm": 11.102660179138184,
        "nan_count": 0,
        "inf_count": 0
      }
    ],
    "outputs": [
      {
        "name": "model.layers.0.mlp.up_proj_output",
        "shape": [
          1,
          5,
          1536
        ],
        "dtype": "torch.float32",
        "device": "cpu",
        "requires_grad": false,
        "numel": 7680,
        "min": -2.1793107986450195,
        "max": 2.3570022583007812,
        "first_10": [
          0.02607899159193039,
          0.9251092672348022,
          -0.015188708901405334,
          -0.04484395682811737,
          0.8570455312728882,
          0.41126400232315063,
          0.20365285873413086,
          -0.04396922141313553,
          -0.08920896053314209,
          0.14263316988945007
        ],
        "last_10": [
          0.5702708959579468,
          0.08587917685508728,
          0.00998767837882042,
          0.23295290768146515,
          -0.24249014258384705,
          -0.06103739142417908,
          -0.113895945250988,
          0.27027323842048645,
          -0.22081753611564636,
          -0.09783953428268433
        ],
        "zero_count": 0,
        "mean": 0.009294969961047173,
        "std": 0.35811716318130493,
        "norm": 31.39234733581543,
        "nan_count": 0,
        "inf_count": 0
      }
    ],
    "parameters": {
      "weight": {
        "name": "model.layers.0.mlp.up_proj_weight",
        "shape": [
          1536,
          576
        ],
        "dtype": "torch.float32",
        "device": "cpu",
        "requires_grad": true,
        "numel": 884736,
        "min": -0.41552734375,
        "max": 0.319091796875,
        "first_10": [
          0.0301971435546875,
          0.040283203125,
          0.0265045166015625,
          -0.025482177734375,
          -0.031585693359375,
          -0.0611572265625,
          -0.06378173828125,
          -0.0132293701171875,
          0.0030040740966796875,
          0.039703369140625
        ],
        "last_10": [
          0.061126708984375,
          -0.01157379150390625,
          -0.07257080078125,
          0.0310211181640625,
          0.00347900390625,
          0.01418304443359375,
          0.09033203125,
          -0.07025146484375,
          -0.052398681640625,
          0.0232391357421875
        ],
        "zero_count": 1,
        "mean": -3.301913238829002e-05,
        "std": 0.043083306401968,
        "norm": 40.52440643310547,
        "nan_count": 0,
        "inf_count": 0
      }
    }
  },
  {
    "id": "011_model.layers.0.mlp.down_proj",
    "order": 12,
    "module_name": "model.layers.0.mlp.down_proj",
    "module_type": "Linear",
    "module_class": "Linear",
    "inputs": [
      {
        "name": "model.layers.0.mlp.down_proj_input_0",
        "shape": [
          1,
          5,
          1536
        ],
        "dtype": "torch.float32",
        "device": "cpu",
        "requires_grad": false,
        "numel": 7680,
        "min": -0.7846539616584778,
        "max": 1.7249482870101929,
        "first_10": [
          0.013817382976412773,
          -0.08090801537036896,
          -0.003909567836672068,
          -0.016901526600122452,
          -0.06676747649908066,
          0.10166562348604202,
          0.044089384377002716,
          -0.01517834048718214,
          -0.03835684061050415,
          0.05212265998125076
        ],
        "last_10": [
          -0.08612518757581711,
          -0.007542146369814873,
          0.0026857638731598854,
          0.01927552931010723,
          -0.012172331102192402,
          -0.003657194785773754,
          -0.0017541989218443632,
          0.08730039745569229,
          0.021767178550362587,
          -0.0003899664734490216
        ],
        "zero_count": 0,
        "mean": 0.0003626302059274167,
        "std": 0.057685162872076035,
        "norm": 5.0550456047058105,
        "nan_count": 0,
        "inf_count": 0
      }
    ],
    "outputs": [
      {
        "name": "model.layers.0.mlp.down_proj_output",
        "shape": [
          1,
          5,
          576
        ],
        "dtype": "torch.float32",
        "device": "cpu",
        "requires_grad": false,
        "numel": 2880,
        "min": -1.621216893196106,
        "max": 0.7324602603912354,
        "first_10": [
          0.02055155485868454,
          0.2455417662858963,
          -0.007903367280960083,
          0.18999998271465302,
          -0.3644137680530548,
          0.06386332213878632,
          0.05789285525679588,
          -0.12974077463150024,
          0.007551177404820919,
          -0.20064906775951385
        ],
        "last_10": [
          0.03835628181695938,
          0.0889783650636673,
          0.05920004844665527,
          0.0637102797627449,
          0.08200317621231079,
          -0.026381785050034523,
          -0.011942535638809204,
          -0.10991782695055008,
          0.018355395644903183,
          0.02128700353205204
        ],
        "zero_count": 0,
        "mean": -0.004889297299087048,
        "std": 0.1338483691215515,
        "norm": 7.186601638793945,
        "nan_count": 0,
        "inf_count": 0
      }
    ],
    "parameters": {
      "weight": {
        "name": "model.layers.0.mlp.down_proj_weight",
        "shape": [
          576,
          1536
        ],
        "dtype": "torch.float32",
        "device": "cpu",
        "requires_grad": true,
        "numel": 884736,
        "min": -0.484375,
        "max": 0.5654296875,
        "first_10": [
          -0.0274810791015625,
          -0.0228271484375,
          0.012603759765625,
          -0.0145263671875,
          -0.0584716796875,
          -0.06744384765625,
          -0.0357666015625,
          0.01226043701171875,
          -0.0066070556640625,
          0.059967041015625
        ],
        "last_10": [
          0.035186767578125,
          0.04180908203125,
          0.005237579345703125,
          -0.006439208984375,
          -0.0044708251953125,
          0.0024871826171875,
          -0.018310546875,
          0.0911865234375,
          0.010772705078125,
          -0.037567138671875
        ],
        "zero_count": 1,
        "mean": 1.1696052979459637e-06,
        "std": 0.0417168103158474,
        "norm": 39.238990783691406,
        "nan_count": 0,
        "inf_count": 0
      }
    }
  },
  {
    "id": "012_model.layers.0.mlp",
    "order": 13,
    "module_name": "model.layers.0.mlp",
    "module_type": "LlamaMLP",
    "module_class": "LlamaMLP",
    "inputs": [
      {
        "name": "model.layers.0.mlp_input_0",
        "shape": [
          1,
          5,
          576
        ],
        "dtype": "torch.float32",
        "device": "cpu",
        "requires_grad": false,
        "numel": 2880,
        "min": -1.3347408771514893,
        "max": 1.365454077720642,
        "first_10": [
          -0.5636857151985168,
          -0.16461291909217834,
          0.19901920855045319,
          0.26324528455734253,
          0.6703099608421326,
          -0.05701792240142822,
          -0.36621883511543274,
          0.07256273180246353,
          -0.07527357339859009,
          0.14713110029697418
        ],
        "last_10": [
          0.16160224378108978,
          -0.10763094574213028,
          -0.11582112312316895,
          0.08713863044977188,
          -0.055452652275562286,
          -0.23154841363430023,
          0.2070559710264206,
          0.15760685503482819,
          0.039368197321891785,
          0.34064269065856934
        ],
        "zero_count": 0,
        "mean": -0.0062288385815918446,
        "std": 0.20682796835899353,
        "norm": 11.102660179138184,
        "nan_count": 0,
        "inf_count": 0
      }
    ],
    "outputs": [
      {
        "name": "model.layers.0.mlp_output",
        "shape": [
          1,
          5,
          576
        ],
        "dtype": "torch.float32",
        "device": "cpu",
        "requires_grad": false,
        "numel": 2880,
        "min": -1.621216893196106,
        "max": 0.7324602603912354,
        "first_10": [
          0.02055155485868454,
          0.2455417662858963,
          -0.007903367280960083,
          0.18999998271465302,
          -0.3644137680530548,
          0.06386332213878632,
          0.05789285525679588,
          -0.12974077463150024,
          0.007551177404820919,
          -0.20064906775951385
        ],
        "last_10": [
          0.03835628181695938,
          0.0889783650636673,
          0.05920004844665527,
          0.0637102797627449,
          0.08200317621231079,
          -0.026381785050034523,
          -0.011942535638809204,
          -0.10991782695055008,
          0.018355395644903183,
          0.02128700353205204
        ],
        "zero_count": 0,
        "mean": -0.004889297299087048,
        "std": 0.1338483691215515,
        "norm": 7.186601638793945,
        "nan_count": 0,
        "inf_count": 0
      }
    ],
    "parameters": {}
  },
  {
    "id": "013_model.layers.1.input_layernorm",
    "order": 14,
    "module_name": "model.layers.1.input_layernorm",
    "module_type": "LlamaRMSNorm",
    "module_class": "LlamaRMSNorm",
    "inputs": [
      {
        "name": "model.layers.1.input_layernorm_input_0",
        "shape": [
          1,
          5,
          576
        ],
        "dtype": "torch.float32",
        "device": "cpu",
        "requires_grad": false,
        "numel": 2880,
        "min": -1.592324137687683,
        "max": 0.7560702562332153,
        "first_10": [
          -0.11046785861253738,
          0.20020049810409546,
          0.04524993151426315,
          0.25987425446510315,
          -0.025972068309783936,
          0.04853171482682228,
          -0.04315492883324623,
          -0.10865310579538345,
          -0.013687399215996265,
          -0.15728041529655457
        ],
        "last_10": [
          0.08075958490371704,
          0.0596124604344368,
          0.028757207095623016,
          0.08827319741249084,
          0.0669717863202095,
          -0.09304272383451462,
          0.04465125873684883,
          -0.06851556897163391,
          0.028914621099829674,
          0.11329815536737442
        ],
        "zero_count": 0,
        "mean": -0.006471933331340551,
        "std": 0.13796137273311615,
        "norm": 7.410642147064209,
        "nan_count": 0,
        "inf_count": 0
      }
    ],
    "outputs": [
      {
        "name": "model.layers.1.input_layernorm_output",
        "shape": [
          1,
          5,
          576
        ],
        "dtype": "torch.float32",
        "device": "cpu",
        "requires_grad": false,
        "numel": 2880,
        "min": -4.880002021789551,
        "max": 2.7029457092285156,
        "first_10": [
          -0.2257457971572876,
          0.6318710446357727,
          0.07773788273334503,
          0.6744063496589661,
          -0.02226852811872959,
          0.1004805862903595,
          -0.08600638806819916,
          -0.1899251639842987,
          -0.022281447425484657,
          -0.2982916831970215
        ],
        "last_10": [
          0.1550721377134323,
          0.13195475935935974,
          0.07149937003850937,
          0.18621566891670227,
          0.13470838963985443,
          -0.1867828220129013,
          0.08876096457242966,
          -0.12645237147808075,
          0.06020211800932884,
          0.2152172476053238
        ],
        "zero_count": 0,
        "mean": -0.013458493165671825,
        "std": 0.3174377679824829,
        "norm": 17.0478458404541,
        "nan_count": 0,
        "inf_count": 0
      }
    ],
    "parameters": {
      "weight": {
        "name": "model.layers.1.input_layernorm_weight",
        "shape": [
          576
        ],
        "dtype": "torch.float32",
        "device": "cpu",
        "requires_grad": true,
        "numel": 576,
        "min": 0.1324462890625,
        "max": 0.533203125,
        "first_10": [
          0.315673828125,
          0.487548828125,
          0.265380859375,
          0.40087890625,
          0.1324462890625,
          0.31982421875,
          0.307861328125,
          0.27001953125,
          0.25146484375,
          0.29296875
        ],
        "last_10": [
          0.2388916015625,
          0.275390625,
          0.309326171875,
          0.262451171875,
          0.250244140625,
          0.249755859375,
          0.247314453125,
          0.2296142578125,
          0.259033203125,
          0.236328125
        ],
        "zero_count": 0,
        "mean": 0.2849392294883728,
        "std": 0.04716143757104874,
        "norm": 6.931417942047119,
        "nan_count": 0,
        "inf_count": 0
      }
    }
  },
  {
    "id": "014_model.layers.1.self_attn.q_proj",
    "order": 15,
    "module_name": "model.layers.1.self_attn.q_proj",
    "module_type": "Linear",
    "module_class": "Linear",
    "inputs": [
      {
        "name": "model.layers.1.self_attn.q_proj_input_0",
        "shape": [
          1,
          5,
          576
        ],
        "dtype": "torch.float32",
        "device": "cpu",
        "requires_grad": false,
        "numel": 2880,
        "min": -4.880002021789551,
        "max": 2.7029457092285156,
        "first_10": [
          -0.2257457971572876,
          0.6318710446357727,
          0.07773788273334503,
          0.6744063496589661,
          -0.02226852811872959,
          0.1004805862903595,
          -0.08600638806819916,
          -0.1899251639842987,
          -0.022281447425484657,
          -0.2982916831970215
        ],
        "last_10": [
          0.1550721377134323,
          0.13195475935935974,
          0.07149937003850937,
          0.18621566891670227,
          0.13470838963985443,
          -0.1867828220129013,
          0.08876096457242966,
          -0.12645237147808075,
          0.06020211800932884,
          0.2152172476053238
        ],
        "zero_count": 0,
        "mean": -0.013458493165671825,
        "std": 0.3174377679824829,
        "norm": 17.0478458404541,
        "nan_count": 0,
        "inf_count": 0
      }
    ],
    "outputs": [
      {
        "name": "model.layers.1.self_attn.q_proj_output",
        "shape": [
          1,
          5,
          576
        ],
        "dtype": "torch.float32",
        "device": "cpu",
        "requires_grad": false,
        "numel": 2880,
        "min": -8.265535354614258,
        "max": 8.848563194274902,
        "first_10": [
          5.6544270515441895,
          -2.2833328247070312,
          1.322256088256836,
          1.120871901512146,
          -0.2613333761692047,
          0.3489985167980194,
          0.3242741525173187,
          -0.08701068162918091,
          -2.2208964824676514,
          0.5514967441558838
        ],
        "last_10": [
          -1.0153753757476807,
          -0.11302116513252258,
          2.5063629150390625,
          -0.06111593544483185,
          1.4162927865982056,
          0.6174386739730835,
          1.3672478199005127,
          -0.9118531942367554,
          1.1062190532684326,
          0.5254678726196289
        ],
        "zero_count": 0,
        "mean": 0.0075783561915159225,
        "std": 1.3952604532241821,
        "norm": 74.86563110351562,
        "nan_count": 0,
        "inf_count": 0
      }
    ],
    "parameters": {
      "weight": {
        "name": "model.layers.1.self_attn.q_proj_weight",
        "shape": [
          576,
          576
        ],
        "dtype": "torch.float32",
        "device": "cpu",
        "requires_grad": true,
        "numel": 331776,
        "min": -0.611328125,
        "max": 0.59423828125,
        "first_10": [
          -0.044158935546875,
          0.30810546875,
          0.013519287109375,
          0.20263671875,
          0.1439208984375,
          -0.128662109375,
          -0.30615234375,
          0.1961669921875,
          0.0147552490234375,
          0.12255859375
        ],
        "last_10": [
          -0.05706787109375,
          -0.0234832763671875,
          -0.03948974609375,
          0.0211029052734375,
          -0.0545654296875,
          0.006481170654296875,
          -0.00868988037109375,
          -0.0504150390625,
          0.01641845703125,
          -0.05706787109375
        ],
        "zero_count": 0,
        "mean": 0.00012849496852140874,
        "std": 0.07569695264101028,
        "norm": 43.6015739440918,
        "nan_count": 0,
        "inf_count": 0
      }
    }
  },
  {
    "id": "015_model.layers.1.self_attn.k_proj",
    "order": 16,
    "module_name": "model.layers.1.self_attn.k_proj",
    "module_type": "Linear",
    "module_class": "Linear",
    "inputs": [
      {
        "name": "model.layers.1.self_attn.k_proj_input_0",
        "shape": [
          1,
          5,
          576
        ],
        "dtype": "torch.float32",
        "device": "cpu",
        "requires_grad": false,
        "numel": 2880,
        "min": -4.880002021789551,
        "max": 2.7029457092285156,
        "first_10": [
          -0.2257457971572876,
          0.6318710446357727,
          0.07773788273334503,
          0.6744063496589661,
          -0.02226852811872959,
          0.1004805862903595,
          -0.08600638806819916,
          -0.1899251639842987,
          -0.022281447425484657,
          -0.2982916831970215
        ],
        "last_10": [
          0.1550721377134323,
          0.13195475935935974,
          0.07149937003850937,
          0.18621566891670227,
          0.13470838963985443,
          -0.1867828220129013,
          0.08876096457242966,
          -0.12645237147808075,
          0.06020211800932884,
          0.2152172476053238
        ],
        "zero_count": 0,
        "mean": -0.013458493165671825,
        "std": 0.3174377679824829,
        "norm": 17.0478458404541,
        "nan_count": 0,
        "inf_count": 0
      }
    ],
    "outputs": [
      {
        "name": "model.layers.1.self_attn.k_proj_output",
        "shape": [
          1,
          5,
          192
        ],
        "dtype": "torch.float32",
        "device": "cpu",
        "requires_grad": false,
        "numel": 960,
        "min": -6.2948503494262695,
        "max": 7.89035177230835,
        "first_10": [
          4.307790279388428,
          0.24903547763824463,
          -0.38460683822631836,
          -0.048388659954071045,
          -0.9271780252456665,
          -0.0726182609796524,
          -1.7457337379455566,
          -2.346543788909912,
          -1.1731445789337158,
          0.9714718461036682
        ],
        "last_10": [
          -1.337501049041748,
          5.283841133117676,
          -1.1774027347564697,
          4.589170455932617,
          0.01547776535153389,
          2.712977170944214,
          2.16361141204834,
          2.8774638175964355,
          -1.4370619058609009,
          1.8503466844558716
        ],
        "zero_count": 0,
        "mean": 0.15146894752979279,
        "std": 1.9340403079986572,
        "norm": 60.076419830322266,
        "nan_count": 0,
        "inf_count": 0
      }
    ],
    "parameters": {
      "weight": {
        "name": "model.layers.1.self_attn.k_proj_weight",
        "shape": [
          192,
          576
        ],
        "dtype": "torch.float32",
        "device": "cpu",
        "requires_grad": true,
        "numel": 110592,
        "min": -0.6396484375,
        "max": 0.841796875,
        "first_10": [
          -0.08428955078125,
          0.11114501953125,
          -0.036895751953125,
          0.1407470703125,
          0.0517578125,
          0.09515380859375,
          -0.1229248046875,
          -0.020843505859375,
          -0.04541015625,
          -0.0125579833984375
        ],
        "last_10": [
          0.10723876953125,
          -0.216064453125,
          0.1014404296875,
          0.1356201171875,
          0.08258056640625,
          -0.10888671875,
          -0.1500244140625,
          0.040924072265625,
          0.297607421875,
          -0.032958984375
        ],
        "zero_count": 0,
        "mean": 0.0001852826972026378,
        "std": 0.1042199581861496,
        "norm": 34.658695220947266,
        "nan_count": 0,
        "inf_count": 0
      }
    }
  },
  {
    "id": "016_model.layers.1.self_attn.v_proj",
    "order": 17,
    "module_name": "model.layers.1.self_attn.v_proj",
    "module_type": "Linear",
    "module_class": "Linear",
    "inputs": [
      {
        "name": "model.layers.1.self_attn.v_proj_input_0",
        "shape": [
          1,
          5,
          576
        ],
        "dtype": "torch.float32",
        "device": "cpu",
        "requires_grad": false,
        "numel": 2880,
        "min": -4.880002021789551,
        "max": 2.7029457092285156,
        "first_10": [
          -0.2257457971572876,
          0.6318710446357727,
          0.07773788273334503,
          0.6744063496589661,
          -0.02226852811872959,
          0.1004805862903595,
          -0.08600638806819916,
          -0.1899251639842987,
          -0.022281447425484657,
          -0.2982916831970215
        ],
        "last_10": [
          0.1550721377134323,
          0.13195475935935974,
          0.07149937003850937,
          0.18621566891670227,
          0.13470838963985443,
          -0.1867828220129013,
          0.08876096457242966,
          -0.12645237147808075,
          0.06020211800932884,
          0.2152172476053238
        ],
        "zero_count": 0,
        "mean": -0.013458493165671825,
        "std": 0.3174377679824829,
        "norm": 17.0478458404541,
        "nan_count": 0,
        "inf_count": 0
      }
    ],
    "outputs": [
      {
        "name": "model.layers.1.self_attn.v_proj_output",
        "shape": [
          1,
          5,
          192
        ],
        "dtype": "torch.float32",
        "device": "cpu",
        "requires_grad": false,
        "numel": 960,
        "min": -0.9887224435806274,
        "max": 0.5093755722045898,
        "first_10": [
          -0.013140656054019928,
          0.05268750712275505,
          0.08544564247131348,
          0.08652074635028839,
          0.016232751309871674,
          -0.07923436164855957,
          0.09547887742519379,
          -0.022125933319330215,
          0.1006070002913475,
          -0.021838292479515076
        ],
        "last_10": [
          0.01588994450867176,
          -0.03425091877579689,
          0.045143045485019684,
          0.06388910859823227,
          0.00037906505167484283,
          0.06005019694566727,
          -0.08585093170404434,
          -0.18235336244106293,
          -0.12559808790683746,
          0.05900070071220398
        ],
        "zero_count": 0,
        "mean": -0.004256053827702999,
        "std": 0.1413564234972,
        "norm": 4.379472732543945,
        "nan_count": 0,
        "inf_count": 0
      }
    ],
    "parameters": {
      "weight": {
        "name": "model.layers.1.self_attn.v_proj_weight",
        "shape": [
          192,
          576
        ],
        "dtype": "torch.float32",
        "device": "cpu",
        "requires_grad": true,
        "numel": 110592,
        "min": -0.1083984375,
        "max": 0.11627197265625,
        "first_10": [
          -0.003269195556640625,
          0.0056915283203125,
          -0.02081298828125,
          -0.0126190185546875,
          0.02825927734375,
          0.009063720703125,
          -0.02593994140625,
          0.036834716796875,
          0.006710052490234375,
          0.0006375312805175781
        ],
        "last_10": [
          -0.0112762451171875,
          -0.002902984619140625,
          0.005451202392578125,
          -0.0303497314453125,
          -0.017120361328125,
          0.031707763671875,
          0.035430908203125,
          -0.0014696121215820312,
          -0.059051513671875,
          -0.026641845703125
        ],
        "zero_count": 0,
        "mean": 1.3691755157196894e-05,
        "std": 0.019784096628427505,
        "norm": 6.57926082611084,
        "nan_count": 0,
        "inf_count": 0
      }
    }
  },
  {
    "id": "017_model.layers.1.self_attn.o_proj",
    "order": 18,
    "module_name": "model.layers.1.self_attn.o_proj",
    "module_type": "Linear",
    "module_class": "Linear",
    "inputs": [
      {
        "name": "model.layers.1.self_attn.o_proj_input_0",
        "shape": [
          1,
          5,
          576
        ],
        "dtype": "torch.float32",
        "device": "cpu",
        "requires_grad": false,
        "numel": 2880,
        "min": -0.9887224435806274,
        "max": 0.4663470983505249,
        "first_10": [
          -0.013140656054019928,
          0.05268750712275505,
          0.08544564247131348,
          0.08652074635028839,
          0.016232751309871674,
          -0.07923436164855957,
          0.09547887742519379,
          -0.022125933319330215,
          0.1006070002913475,
          -0.021838292479515076
        ],
        "last_10": [
          0.03595517575740814,
          0.0719386637210846,
          0.0637383908033371,
          -0.013996372930705547,
          0.051905546337366104,
          0.03030698001384735,
          0.03261907026171684,
          -0.0485052689909935,
          0.002002519555389881,
          0.05922044441103935
        ],
        "zero_count": 0,
        "mean": -0.002750754589214921,
        "std": 0.11995293200016022,
        "norm": 6.437925338745117,
        "nan_count": 0,
        "inf_count": 0
      }
    ],
    "outputs": [
      {
        "name": "model.layers.1.self_attn.o_proj_output",
        "shape": [
          1,
          5,
          576
        ],
        "dtype": "torch.float32",
        "device": "cpu",
        "requires_grad": false,
        "numel": 2880,
        "min": -1.4124674797058105,
        "max": 0.6053880453109741,
        "first_10": [
          0.14699488878250122,
          0.16522417962551117,
          0.018222704529762268,
          0.039799533784389496,
          -0.36835792660713196,
          -0.45509135723114014,
          0.6053880453109741,
          -0.1511288583278656,
          0.01855621114373207,
          0.06573210656642914
        ],
        "last_10": [
          -0.039007000625133514,
          0.0052854567766189575,
          0.00446963869035244,
          -0.06463710963726044,
          -0.054943956434726715,
          -0.027822434902191162,
          0.03358200192451477,
          0.05056844651699066,
          0.06870255619287491,
          0.0118941068649292
        ],
        "zero_count": 0,
        "mean": -0.0023014445323497057,
        "std": 0.07725052535533905,
        "norm": 4.146817684173584,
        "nan_count": 0,
        "inf_count": 0
      }
    ],
    "parameters": {
      "weight": {
        "name": "model.layers.1.self_attn.o_proj_weight",
        "shape": [
          576,
          576
        ],
        "dtype": "torch.float32",
        "device": "cpu",
        "requires_grad": true,
        "numel": 331776,
        "min": -0.33642578125,
        "max": 0.5537109375,
        "first_10": [
          -0.00313568115234375,
          0.003841400146484375,
          0.005802154541015625,
          -0.002532958984375,
          -0.0015935897827148438,
          -0.017822265625,
          0.00891876220703125,
          0.0024242401123046875,
          -0.01453399658203125,
          -0.00560760498046875
        ],
        "last_10": [
          0.02288818359375,
          0.037811279296875,
          0.004253387451171875,
          -0.006809234619140625,
          0.007228851318359375,
          -0.050201416015625,
          -0.0039520263671875,
          0.015655517578125,
          -0.003875732421875,
          -0.0057830810546875
        ],
        "zero_count": 1,
        "mean": -6.449230568250641e-06,
        "std": 0.025065600872039795,
        "norm": 14.43779468536377,
        "nan_count": 0,
        "inf_count": 0
      }
    }
  },
  {
    "id": "018_model.layers.1.self_attn",
    "order": 19,
    "module_name": "model.layers.1.self_attn",
    "module_type": "LlamaSdpaAttention",
    "module_class": "LlamaSdpaAttention",
    "inputs": [],
    "outputs": [
      {
        "name": "model.layers.1.self_attn_output_0",
        "shape": [
          1,
          5,
          576
        ],
        "dtype": "torch.float32",
        "device": "cpu",
        "requires_grad": false,
        "numel": 2880,
        "min": -1.4124674797058105,
        "max": 0.6053880453109741,
        "first_10": [
          0.14699488878250122,
          0.16522417962551117,
          0.018222704529762268,
          0.039799533784389496,
          -0.36835792660713196,
          -0.45509135723114014,
          0.6053880453109741,
          -0.1511288583278656,
          0.01855621114373207,
          0.06573210656642914
        ],
        "last_10": [
          -0.039007000625133514,
          0.0052854567766189575,
          0.00446963869035244,
          -0.06463710963726044,
          -0.054943956434726715,
          -0.027822434902191162,
          0.03358200192451477,
          0.05056844651699066,
          0.06870255619287491,
          0.0118941068649292
        ],
        "zero_count": 0,
        "mean": -0.0023014445323497057,
        "std": 0.07725052535533905,
        "norm": 4.146817684173584,
        "nan_count": 0,
        "inf_count": 0
      },
      {
        "name": "model.layers.1.self_attn_output_1",
        "shape": [
          1,
          9,
          5,
          5
        ],
        "dtype": "torch.float32",
        "device": "cpu",
        "requires_grad": false,
        "numel": 225,
        "min": 0.0,
        "max": 1.0,
        "first_10": [
          1.0,
          0.0,
          0.0,
          0.0,
          0.0,
          0.9854495525360107,
          0.014550477266311646,
          0.0,
          0.0,
          0.0
        ],
        "last_10": [
          0.15391463041305542,
          0.06599882245063782,
          0.010094955563545227,
          0.7699916958808899,
          0.0,
          0.03087298758327961,
          0.008281485177576542,
          0.0069556827656924725,
          0.6967035531997681,
          0.25718632340431213
        ],
        "zero_count": 90,
        "mean": 0.20000000298023224,
        "std": 0.3247119188308716,
        "norm": 5.711223602294922,
        "nan_count": 0,
        "inf_count": 0
      }
    ],
    "parameters": {}
  },
  {
    "id": "019_model.layers.1.post_attention_layernorm",
    "order": 20,
    "module_name": "model.layers.1.post_attention_layernorm",
    "module_type": "LlamaRMSNorm",
    "module_class": "LlamaRMSNorm",
    "inputs": [
      {
        "name": "model.layers.1.post_attention_layernorm_input_0",
        "shape": [
          1,
          5,
          576
        ],
        "dtype": "torch.float32",
        "device": "cpu",
        "requires_grad": false,
        "numel": 2880,
        "min": -2.5984530448913574,
        "max": 0.8333139419555664,
        "first_10": [
          0.03652703016996384,
          0.3654246926307678,
          0.06347263604402542,
          0.29967379570007324,
          -0.3943299949169159,
          -0.40655964612960815,
          0.5622330904006958,
          -0.25978195667266846,
          0.0048688119277358055,
          -0.09154830873012543
        ],
        "last_10": [
          0.04175258427858353,
          0.06489791721105576,
          0.033226847648620605,
          0.023636087775230408,
          0.012027829885482788,
          -0.12086515873670578,
          0.0782332569360733,
          -0.01794712245464325,
          0.09761717915534973,
          0.12519225478172302
        ],
        "zero_count": 0,
        "mean": -0.008773377165198326,
        "std": 0.1615770161151886,
        "norm": 8.682402610778809,
        "nan_count": 0,
        "inf_count": 0
      }
    ],
    "outputs": [
      {
        "name": "model.layers.1.post_attention_layernorm_output",
        "shape": [
          1,
          5,
          576
        ],
        "dtype": "torch.float32",
        "device": "cpu",
        "requires_grad": false,
        "numel": 2880,
        "min": -0.7793472409248352,
        "max": 1.1780140399932861,
        "first_10": [
          0.04591430723667145,
          0.2841661870479584,
          0.09497812390327454,
          0.4187515079975128,
          -0.22176703810691833,
          -0.42926642298698425,
          0.45059844851493835,
          -0.377658873796463,
          0.00731602031737566,
          -0.07773065567016602
        ],
        "last_10": [
          0.09216638654470444,
          0.1566198319196701,
          0.06138961762189865,
          0.04709738865494728,
          0.027325933799147606,
          -0.2401873767375946,
          0.17395587265491486,
          -0.03907100111246109,
          0.21548420190811157,
          0.27276846766471863
        ],
        "zero_count": 0,
        "mean": -0.006578446831554174,
        "std": 0.201703280210495,
        "norm": 10.828410148620605,
        "nan_count": 0,
        "inf_count": 0
      }
    ],
    "parameters": {
      "weight": {
        "name": "model.layers.1.post_attention_layernorm_weight",
        "shape": [
          576
        ],
        "dtype": "torch.float32",
        "device": "cpu",
        "requires_grad": true,
        "numel": 576,
        "min": -0.00010603666305541992,
        "max": 0.337646484375,
        "first_10": [
          0.244873046875,
          0.1514892578125,
          0.29150390625,
          0.272216796875,
          0.10955810546875,
          0.2056884765625,
          0.1561279296875,
          0.283203125,
          0.292724609375,
          0.1654052734375
        ],
        "last_10": [
          0.301025390625,
          0.3291015625,
          0.251953125,
          0.271728515625,
          0.309814453125,
          0.27099609375,
          0.30322265625,
          0.296875,
          0.301025390625,
          0.297119140625
        ],
        "zero_count": 0,
        "mean": 0.2663036584854126,
        "std": 0.053123731166124344,
        "norm": 6.516998767852783,
        "nan_count": 0,
        "inf_count": 0
      }
    }
  },
  {
    "id": "020_model.layers.1.mlp.gate_proj",
    "order": 21,
    "module_name": "model.layers.1.mlp.gate_proj",
    "module_type": "Linear",
    "module_class": "Linear",
    "inputs": [
      {
        "name": "model.layers.1.mlp.gate_proj_input_0",
        "shape": [
          1,
          5,
          576
        ],
        "dtype": "torch.float32",
        "device": "cpu",
        "requires_grad": false,
        "numel": 2880,
        "min": -0.7793472409248352,
        "max": 1.1780140399932861,
        "first_10": [
          0.04591430723667145,
          0.2841661870479584,
          0.09497812390327454,
          0.4187515079975128,
          -0.22176703810691833,
          -0.42926642298698425,
          0.45059844851493835,
          -0.377658873796463,
          0.00731602031737566,
          -0.07773065567016602
        ],
        "last_10": [
          0.09216638654470444,
          0.1566198319196701,
          0.06138961762189865,
          0.04709738865494728,
          0.027325933799147606,
          -0.2401873767375946,
          0.17395587265491486,
          -0.03907100111246109,
          0.21548420190811157,
          0.27276846766471863
        ],
        "zero_count": 0,
        "mean": -0.006578446831554174,
        "std": 0.201703280210495,
        "norm": 10.828410148620605,
        "nan_count": 0,
        "inf_count": 0
      }
    ],
    "outputs": [
      {
        "name": "model.layers.1.mlp.gate_proj_output",
        "shape": [
          1,
          5,
          1536
        ],
        "dtype": "torch.float32",
        "device": "cpu",
        "requires_grad": false,
        "numel": 7680,
        "min": -1.853118658065796,
        "max": 1.9725804328918457,
        "first_10": [
          -0.2788000702857971,
          -0.15132349729537964,
          -0.29731041193008423,
          0.05133878067135811,
          0.10717805474996567,
          0.19758184254169464,
          0.11098693311214447,
          0.17757414281368256,
          0.026973171159625053,
          -0.048807285726070404
        ],
        "last_10": [
          0.09793319553136826,
          -0.01542036235332489,
          0.2535605728626251,
          -0.4409564137458801,
          0.29637932777404785,
          0.13324928283691406,
          -0.2014673352241516,
          0.10519971698522568,
          -0.5372567176818848,
          0.2143792062997818
        ],
        "zero_count": 0,
        "mean": -0.07304989546537399,
        "std": 0.24158784747123718,
        "norm": 22.117074966430664,
        "nan_count": 0,
        "inf_count": 0
      }
    ],
    "parameters": {
      "weight": {
        "name": "model.layers.1.mlp.gate_proj_weight",
        "shape": [
          1536,
          576
        ],
        "dtype": "torch.float32",
        "device": "cpu",
        "requires_grad": true,
        "numel": 884736,
        "min": -0.43212890625,
        "max": 0.50927734375,
        "first_10": [
          0.049713134765625,
          -0.06365966796875,
          -0.06298828125,
          0.006801605224609375,
          0.0087890625,
          0.01332855224609375,
          0.05859375,
          0.05126953125,
          -0.073486328125,
          -0.0011854171752929688
        ],
        "last_10": [
          0.01031494140625,
          -0.004909515380859375,
          0.06378173828125,
          -0.0721435546875,
          -0.004344940185546875,
          -0.0496826171875,
          0.0012035369873046875,
          -0.0192718505859375,
          -0.02105712890625,
          0.0377197265625
        ],
        "zero_count": 0,
        "mean": 4.286121838958934e-05,
        "std": 0.047452908009290695,
        "norm": 44.63460159301758,
        "nan_count": 0,
        "inf_count": 0
      }
    }
  },
  {
    "id": "021_model.layers.1.mlp.act_fn",
    "order": 22,
    "module_name": "model.layers.1.mlp.act_fn",
    "module_type": "SiLU",
    "module_class": "SiLU",
    "inputs": [
      {
        "name": "model.layers.1.mlp.act_fn_input_0",
        "shape": [
          1,
          5,
          1536
        ],
        "dtype": "torch.float32",
        "device": "cpu",
        "requires_grad": false,
        "numel": 7680,
        "min": -1.853118658065796,
        "max": 1.9725804328918457,
        "first_10": [
          -0.2788000702857971,
          -0.15132349729537964,
          -0.29731041193008423,
          0.05133878067135811,
          0.10717805474996567,
          0.19758184254169464,
          0.11098693311214447,
          0.17757414281368256,
          0.026973171159625053,
          -0.048807285726070404
        ],
        "last_10": [
          0.09793319553136826,
          -0.01542036235332489,
          0.2535605728626251,
          -0.4409564137458801,
          0.29637932777404785,
          0.13324928283691406,
          -0.2014673352241516,
          0.10519971698522568,
          -0.5372567176818848,
          0.2143792062997818
        ],
        "zero_count": 0,
        "mean": -0.07304989546537399,
        "std": 0.24158784747123718,
        "norm": 22.117074966430664,
        "nan_count": 0,
        "inf_count": 0
      }
    ],
    "outputs": [
      {
        "name": "model.layers.1.mlp.act_fn_output",
        "shape": [
          1,
          5,
          1536
        ],
        "dtype": "torch.float32",
        "device": "cpu",
        "requires_grad": false,
        "numel": 7680,
        "min": -0.27839910984039307,
        "max": 1.7317047119140625,
        "first_10": [
          -0.12009256333112717,
          -0.06994794309139252,
          -0.1267181932926178,
          0.026328163221478462,
          0.056458063423633575,
          0.10851893573999405,
          0.05856983736157417,
          0.09664956480264664,
          0.013668462634086609,
          -0.023808224126696587
        ],
        "last_10": [
          0.05136241018772125,
          -0.007650735322386026,
          0.14276796579360962,
          -0.17264020442962646,
          0.16999049484729767,
          0.07105692476034164,
          -0.09062057733535767,
          0.05536405369639397,
          -0.19815422594547272,
          0.11863540858030319
        ],
        "zero_count": 0,
        "mean": -0.021030377596616745,
        "std": 0.1197049543261528,
        "norm": 10.650407791137695,
        "nan_count": 0,
        "inf_count": 0
      }
    ],
    "parameters": {}
  },
  {
    "id": "022_model.layers.1.mlp.up_proj",
    "order": 23,
    "module_name": "model.layers.1.mlp.up_proj",
    "module_type": "Linear",
    "module_class": "Linear",
    "inputs": [
      {
        "name": "model.layers.1.mlp.up_proj_input_0",
        "shape": [
          1,
          5,
          576
        ],
        "dtype": "torch.float32",
        "device": "cpu",
        "requires_grad": false,
        "numel": 2880,
        "min": -0.7793472409248352,
        "max": 1.1780140399932861,
        "first_10": [
          0.04591430723667145,
          0.2841661870479584,
          0.09497812390327454,
          0.4187515079975128,
          -0.22176703810691833,
          -0.42926642298698425,
          0.45059844851493835,
          -0.377658873796463,
          0.00731602031737566,
          -0.07773065567016602
        ],
        "last_10": [
          0.09216638654470444,
          0.1566198319196701,
          0.06138961762189865,
          0.04709738865494728,
          0.027325933799147606,
          -0.2401873767375946,
          0.17395587265491486,
          -0.03907100111246109,
          0.21548420190811157,
          0.27276846766471863
        ],
        "zero_count": 0,
        "mean": -0.006578446831554174,
        "std": 0.201703280210495,
        "norm": 10.828410148620605,
        "nan_count": 0,
        "inf_count": 0
      }
    ],
    "outputs": [
      {
        "name": "model.layers.1.mlp.up_proj_output",
        "shape": [
          1,
          5,
          1536
        ],
        "dtype": "torch.float32",
        "device": "cpu",
        "requires_grad": false,
        "numel": 7680,
        "min": -1.3972574472427368,
        "max": 1.7162888050079346,
        "first_10": [
          0.04637036845088005,
          0.03801455348730087,
          0.24506424367427826,
          0.0020537003874778748,
          -0.10567010194063187,
          -0.13597896695137024,
          -0.3662850260734558,
          -0.2959253787994385,
          -0.1478966772556305,
          -0.014155663549900055
        ],
        "last_10": [
          0.16981953382492065,
          0.12141222506761551,
          -0.20726922154426575,
          0.2751648426055908,
          -0.11788453161716461,
          -0.09833694994449615,
          -0.22353264689445496,
          -0.11285526305437088,
          0.16692693531513214,
          -0.25493884086608887
        ],
        "zero_count": 0,
        "mean": 0.00019756115216296166,
        "std": 0.20161573588848114,
        "norm": 17.66757583618164,
        "nan_count": 0,
        "inf_count": 0
      }
    ],
    "parameters": {
      "weight": {
        "name": "model.layers.1.mlp.up_proj_weight",
        "shape": [
          1536,
          576
        ],
        "dtype": "torch.float32",
        "device": "cpu",
        "requires_grad": true,
        "numel": 884736,
        "min": -0.285400390625,
        "max": 0.229736328125,
        "first_10": [
          -0.0195465087890625,
          0.0102081298828125,
          0.00489044189453125,
          -0.01049041748046875,
          0.001766204833984375,
          0.0015544891357421875,
          0.0022830963134765625,
          -0.039581298828125,
          0.021575927734375,
          0.0285186767578125
        ],
        "last_10": [
          0.048858642578125,
          0.06610107421875,
          -0.045379638671875,
          0.03314208984375,
          -0.08197021484375,
          -0.04437255859375,
          -0.09375,
          -0.049591064453125,
          -0.0780029296875,
          -0.059356689453125
        ],
        "zero_count": 0,
        "mean": 1.3197090993344318e-05,
        "std": 0.04186372458934784,
        "norm": 39.37725830078125,
        "nan_count": 0,
        "inf_count": 0
      }
    }
  },
  {
    "id": "023_model.layers.1.mlp.down_proj",
    "order": 24,
    "module_name": "model.layers.1.mlp.down_proj",
    "module_type": "Linear",
    "module_class": "Linear",
    "inputs": [
      {
        "name": "model.layers.1.mlp.down_proj_input_0",
        "shape": [
          1,
          5,
          1536
        ],
        "dtype": "torch.float32",
        "device": "cpu",
        "requires_grad": false,
        "numel": 7680,
        "min": -2.2146987915039062,
        "max": 1.0398938655853271,
        "first_10": [
          -0.005568736232817173,
          -0.002659039804711938,
          -0.031054098159074783,
          5.4070158512331545e-05,
          -0.005965929478406906,
          -0.014756293036043644,
          -0.02145325392484665,
          -0.028601059690117836,
          -0.0020215201657265425,
          0.0003370212216395885
        ],
        "last_10": [
          0.008722340688109398,
          -0.0009288928122259676,
          -0.029591405764222145,
          -0.04750451445579529,
          -0.02003924921154976,
          -0.0069875214248895645,
          0.020256657153367996,
          -0.006248124875128269,
          -0.03307727724313736,
          -0.030244773253798485
        ],
        "zero_count": 0,
        "mean": -0.0004963892279192805,
        "std": 0.05145394802093506,
        "norm": 4.5091142654418945,
        "nan_count": 0,
        "inf_count": 0
      }
    ],
    "outputs": [
      {
        "name": "model.layers.1.mlp.down_proj_output",
        "shape": [
          1,
          5,
          576
        ],
        "dtype": "torch.float32",
        "device": "cpu",
        "requires_grad": false,
        "numel": 2880,
        "min": -2.671833038330078,
        "max": 0.8903539776802063,
        "first_10": [
          -0.057210881263017654,
          0.1283363699913025,
          -0.048121389001607895,
          0.12318471074104309,
          -0.6774101257324219,
          -0.1365349292755127,
          0.037335556000471115,
          -0.09794369339942932,
          0.0053521692752838135,
          -0.059597574174404144
        ],
        "last_10": [
          0.08738145232200623,
          -0.015454614534974098,
          0.013757476583123207,
          0.08748111128807068,
          0.013695172034204006,
          0.003147108480334282,
          0.052702296525239944,
          -0.005051200278103352,
          -0.022764015942811966,
          0.012314794585108757
        ],
        "zero_count": 0,
        "mean": -0.0011598652927204967,
        "std": 0.09776674211025238,
        "norm": 5.246171951293945,
        "nan_count": 0,
        "inf_count": 0
      }
    ],
    "parameters": {
      "weight": {
        "name": "model.layers.1.mlp.down_proj_weight",
        "shape": [
          576,
          1536
        ],
        "dtype": "torch.float32",
        "device": "cpu",
        "requires_grad": true,
        "numel": 884736,
        "min": -0.6435546875,
        "max": 0.6640625,
        "first_10": [
          -0.02484130859375,
          0.03533935546875,
          -0.0389404296875,
          -0.01195526123046875,
          0.00391387939453125,
          0.0699462890625,
          -0.0085601806640625,
          0.0308074951171875,
          0.022064208984375,
          -0.043914794921875
        ],
        "last_10": [
          -0.09228515625,
          -0.003032684326171875,
          -0.06597900390625,
          -0.025054931640625,
          -0.006954193115234375,
          0.0187225341796875,
          0.026397705078125,
          0.034149169921875,
          -0.0229644775390625,
          -0.035125732421875
        ],
        "zero_count": 3,
        "mean": 2.322380169061944e-05,
        "std": 0.04208807274699211,
        "norm": 39.588218688964844,
        "nan_count": 0,
        "inf_count": 0
      }
    }
  },
  {
    "id": "024_model.layers.1.mlp",
    "order": 25,
    "module_name": "model.layers.1.mlp",
    "module_type": "LlamaMLP",
    "module_class": "LlamaMLP",
    "inputs": [
      {
        "name": "model.layers.1.mlp_input_0",
        "shape": [
          1,
          5,
          576
        ],
        "dtype": "torch.float32",
        "device": "cpu",
        "requires_grad": false,
        "numel": 2880,
        "min": -0.7793472409248352,
        "max": 1.1780140399932861,
        "first_10": [
          0.04591430723667145,
          0.2841661870479584,
          0.09497812390327454,
          0.4187515079975128,
          -0.22176703810691833,
          -0.42926642298698425,
          0.45059844851493835,
          -0.377658873796463,
          0.00731602031737566,
          -0.07773065567016602
        ],
        "last_10": [
          0.09216638654470444,
          0.1566198319196701,
          0.06138961762189865,
          0.04709738865494728,
          0.027325933799147606,
          -0.2401873767375946,
          0.17395587265491486,
          -0.03907100111246109,
          0.21548420190811157,
          0.27276846766471863
        ],
        "zero_count": 0,
        "mean": -0.006578446831554174,
        "std": 0.201703280210495,
        "norm": 10.828410148620605,
        "nan_count": 0,
        "inf_count": 0
      }
    ],
    "outputs": [
      {
        "name": "model.layers.1.mlp_output",
        "shape": [
          1,
          5,
          576
        ],
        "dtype": "torch.float32",
        "device": "cpu",
        "requires_grad": false,
        "numel": 2880,
        "min": -2.671833038330078,
        "max": 0.8903539776802063,
        "first_10": [
          -0.057210881263017654,
          0.1283363699913025,
          -0.048121389001607895,
          0.12318471074104309,
          -0.6774101257324219,
          -0.1365349292755127,
          0.037335556000471115,
          -0.09794369339942932,
          0.0053521692752838135,
          -0.059597574174404144
        ],
        "last_10": [
          0.08738145232200623,
          -0.015454614534974098,
          0.013757476583123207,
          0.08748111128807068,
          0.013695172034204006,
          0.003147108480334282,
          0.052702296525239944,
          -0.005051200278103352,
          -0.022764015942811966,
          0.012314794585108757
        ],
        "zero_count": 0,
        "mean": -0.0011598652927204967,
        "std": 0.09776674211025238,
        "norm": 5.246171951293945,
        "nan_count": 0,
        "inf_count": 0
      }
    ],
    "parameters": {}
  },
  {
    "id": "025_model.layers.2.input_layernorm",
    "order": 26,
    "module_name": "model.layers.2.input_layernorm",
    "module_type": "LlamaRMSNorm",
    "module_class": "LlamaRMSNorm",
    "inputs": [
      {
        "name": "model.layers.2.input_layernorm_input_0",
        "shape": [
          1,
          5,
          576
        ],
        "dtype": "torch.float32",
        "device": "cpu",
        "requires_grad": false,
        "numel": 2880,
        "min": -5.195679664611816,
        "max": 1.6821680068969727,
        "first_10": [
          -0.020683851093053818,
          0.4937610626220703,
          0.015351247042417526,
          0.42285850644111633,
          -1.0717401504516602,
          -0.5430945754051208,
          0.5995686650276184,
          -0.3577256500720978,
          0.010220981203019619,
          -0.15114587545394897
        ],
        "last_10": [
          0.12913402915000916,
          0.04944330453872681,
          0.04698432236909866,
          0.11111719906330109,
          0.02572300285100937,
          -0.11771804839372635,
          0.13093554973602295,
          -0.022998321801424026,
          0.07485316693782806,
          0.13750705122947693
        ],
        "zero_count": 0,
        "mean": -0.00993324164301157,
        "std": 0.22088874876499176,
        "norm": 11.864060401916504,
        "nan_count": 0,
        "inf_count": 0
      }
    ],
    "outputs": [
      {
        "name": "model.layers.2.input_layernorm_output",
        "shape": [
          1,
          5,
          576
        ],
        "dtype": "torch.float32",
        "device": "cpu",
        "requires_grad": false,
        "numel": 2880,
        "min": -2.8792295455932617,
        "max": 2.8359522819519043,
        "first_10": [
          -0.03284836560487747,
          0.8172115683555603,
          0.022495094686746597,
          0.5935037732124329,
          -0.748441219329834,
          -1.1198481321334839,
          1.000051498413086,
          -0.5423147678375244,
          0.013599876314401627,
          -0.15582960844039917
        ],
        "last_10": [
          0.3559091091156006,
          0.14000409841537476,
          0.10443106293678284,
          0.29991498589515686,
          0.07426144182682037,
          -0.3538684844970703,
          0.3982137143611908,
          -0.0638105496764183,
          0.20404425263404846,
          0.44080498814582825
        ],
        "zero_count": 0,
        "mean": -0.009507838636636734,
        "std": 0.3385304808616638,
        "norm": 18.171463012695312,
        "nan_count": 0,
        "inf_count": 0
      }
    ],
    "parameters": {
      "weight": {
        "name": "model.layers.2.input_layernorm_weight",
        "shape": [
          576
        ],
        "dtype": "torch.float32",
        "device": "cpu",
        "requires_grad": true,
        "numel": 576,
        "min": 0.1751708984375,
        "max": 0.802734375,
        "first_10": [
          0.45166015625,
          0.470703125,
          0.416748046875,
          0.399169921875,
          0.1986083984375,
          0.58642578125,
          0.474365234375,
          0.43115234375,
          0.37841796875,
          0.293212890625
        ],
        "last_10": [
          0.401123046875,
          0.412109375,
          0.323486328125,
          0.392822265625,
          0.420166015625,
          0.4375,
          0.442626953125,
          0.40380859375,
          0.396728515625,
          0.466552734375
        ],
        "zero_count": 0,
        "mean": 0.4041699171066284,
        "std": 0.05714868754148483,
        "norm": 9.796399116516113,
        "nan_count": 0,
        "inf_count": 0
      }
    }
  },
  {
    "id": "026_model.layers.2.self_attn.q_proj",
    "order": 27,
    "module_name": "model.layers.2.self_attn.q_proj",
    "module_type": "Linear",
    "module_class": "Linear",
    "inputs": [
      {
        "name": "model.layers.2.self_attn.q_proj_input_0",
        "shape": [
          1,
          5,
          576
        ],
        "dtype": "torch.float32",
        "device": "cpu",
        "requires_grad": false,
        "numel": 2880,
        "min": -2.8792295455932617,
        "max": 2.8359522819519043,
        "first_10": [
          -0.03284836560487747,
          0.8172115683555603,
          0.022495094686746597,
          0.5935037732124329,
          -0.748441219329834,
          -1.1198481321334839,
          1.000051498413086,
          -0.5423147678375244,
          0.013599876314401627,
          -0.15582960844039917
        ],
        "last_10": [
          0.3559091091156006,
          0.14000409841537476,
          0.10443106293678284,
          0.29991498589515686,
          0.07426144182682037,
          -0.3538684844970703,
          0.3982137143611908,
          -0.0638105496764183,
          0.20404425263404846,
          0.44080498814582825
        ],
        "zero_count": 0,
        "mean": -0.009507838636636734,
        "std": 0.3385304808616638,
        "norm": 18.171463012695312,
        "nan_count": 0,
        "inf_count": 0
      }
    ],
    "outputs": [
      {
        "name": "model.layers.2.self_attn.q_proj_output",
        "shape": [
          1,
          5,
          576
        ],
        "dtype": "torch.float32",
        "device": "cpu",
        "requires_grad": false,
        "numel": 2880,
        "min": -5.955900192260742,
        "max": 5.334842681884766,
        "first_10": [
          0.7333023548126221,
          -0.9111893773078918,
          0.19315338134765625,
          -0.022953733801841736,
          0.21768642961978912,
          0.5415355563163757,
          -0.07642477750778198,
          0.15493005514144897,
          -0.011029332876205444,
          0.14526233077049255
        ],
        "last_10": [
          1.1100033521652222,
          -0.6563824415206909,
          1.774322271347046,
          0.9923093914985657,
          0.2531884014606476,
          0.33096379041671753,
          -0.30668115615844727,
          -1.0742247104644775,
          0.09527019411325455,
          -0.1747964322566986
        ],
        "zero_count": 0,
        "mean": -0.034006938338279724,
        "std": 1.0335047245025635,
        "norm": 55.48406982421875,
        "nan_count": 0,
        "inf_count": 0
      }
    ],
    "parameters": {
      "weight": {
        "name": "model.layers.2.self_attn.q_proj_weight",
        "shape": [
          576,
          576
        ],
        "dtype": "torch.float32",
        "device": "cpu",
        "requires_grad": true,
        "numel": 331776,
        "min": -0.5556640625,
        "max": 0.509765625,
        "first_10": [
          0.0269012451171875,
          -0.044158935546875,
          0.03472900390625,
          -0.04656982421875,
          -0.01396942138671875,
          -0.04791259765625,
          -0.0787353515625,
          -0.0584716796875,
          0.015838623046875,
          0.05322265625
        ],
        "last_10": [
          -0.06280517578125,
          -0.173828125,
          -0.06414794921875,
          0.03656005859375,
          -0.066650390625,
          0.06988525390625,
          0.03948974609375,
          0.0002682209014892578,
          -0.035308837890625,
          -0.050933837890625
        ],
        "zero_count": 0,
        "mean": -4.7479737986577675e-05,
        "std": 0.07026480883359909,
        "norm": 40.47260665893555,
        "nan_count": 0,
        "inf_count": 0
      }
    }
  },
  {
    "id": "027_model.layers.2.self_attn.k_proj",
    "order": 28,
    "module_name": "model.layers.2.self_attn.k_proj",
    "module_type": "Linear",
    "module_class": "Linear",
    "inputs": [
      {
        "name": "model.layers.2.self_attn.k_proj_input_0",
        "shape": [
          1,
          5,
          576
        ],
        "dtype": "torch.float32",
        "device": "cpu",
        "requires_grad": false,
        "numel": 2880,
        "min": -2.8792295455932617,
        "max": 2.8359522819519043,
        "first_10": [
          -0.03284836560487747,
          0.8172115683555603,
          0.022495094686746597,
          0.5935037732124329,
          -0.748441219329834,
          -1.1198481321334839,
          1.000051498413086,
          -0.5423147678375244,
          0.013599876314401627,
          -0.15582960844039917
        ],
        "last_10": [
          0.3559091091156006,
          0.14000409841537476,
          0.10443106293678284,
          0.29991498589515686,
          0.07426144182682037,
          -0.3538684844970703,
          0.3982137143611908,
          -0.0638105496764183,
          0.20404425263404846,
          0.44080498814582825
        ],
        "zero_count": 0,
        "mean": -0.009507838636636734,
        "std": 0.3385304808616638,
        "norm": 18.171463012695312,
        "nan_count": 0,
        "inf_count": 0
      }
    ],
    "outputs": [
      {
        "name": "model.layers.2.self_attn.k_proj_output",
        "shape": [
          1,
          5,
          192
        ],
        "dtype": "torch.float32",
        "device": "cpu",
        "requires_grad": false,
        "numel": 960,
        "min": -8.425788879394531,
        "max": 7.190440654754639,
        "first_10": [
          0.3599778413772583,
          0.8220376968383789,
          -0.18712687492370605,
          0.24025574326515198,
          0.18656666576862335,
          -0.38477277755737305,
          0.32027801871299744,
          -0.38603395223617554,
          0.8414723873138428,
          1.2157974243164062
        ],
        "last_10": [
          0.5005590915679932,
          7.190440654754639,
          -0.19902144372463226,
          -1.2327650785446167,
          0.49686622619628906,
          -1.921435832977295,
          2.7914187908172607,
          1.5424795150756836,
          -1.3140697479248047,
          -0.611457347869873
        ],
        "zero_count": 0,
        "mean": -0.016312019899487495,
        "std": 1.2737774848937988,
        "norm": 39.44922637939453,
        "nan_count": 0,
        "inf_count": 0
      }
    ],
    "parameters": {
      "weight": {
        "name": "model.layers.2.self_attn.k_proj_weight",
        "shape": [
          192,
          576
        ],
        "dtype": "torch.float32",
        "device": "cpu",
        "requires_grad": true,
        "numel": 110592,
        "min": -0.865234375,
        "max": 0.78759765625,
        "first_10": [
          -0.042266845703125,
          0.06854248046875,
          -0.11273193359375,
          0.032745361328125,
          -0.05078125,
          0.06317138671875,
          0.050537109375,
          -0.06317138671875,
          0.056732177734375,
          0.053955078125
        ],
        "last_10": [
          -0.0777587890625,
          0.116943359375,
          0.06817626953125,
          -0.09967041015625,
          0.083251953125,
          0.113037109375,
          -0.0216827392578125,
          0.044708251953125,
          -0.1729736328125,
          -0.11029052734375
        ],
        "zero_count": 0,
        "mean": -2.1094576368341222e-05,
        "std": 0.09614463150501251,
        "norm": 31.973190307617188,
        "nan_count": 0,
        "inf_count": 0
      }
    }
  },
  {
    "id": "028_model.layers.2.self_attn.v_proj",
    "order": 29,
    "module_name": "model.layers.2.self_attn.v_proj",
    "module_type": "Linear",
    "module_class": "Linear",
    "inputs": [
      {
        "name": "model.layers.2.self_attn.v_proj_input_0",
        "shape": [
          1,
          5,
          576
        ],
        "dtype": "torch.float32",
        "device": "cpu",
        "requires_grad": false,
        "numel": 2880,
        "min": -2.8792295455932617,
        "max": 2.8359522819519043,
        "first_10": [
          -0.03284836560487747,
          0.8172115683555603,
          0.022495094686746597,
          0.5935037732124329,
          -0.748441219329834,
          -1.1198481321334839,
          1.000051498413086,
          -0.5423147678375244,
          0.013599876314401627,
          -0.15582960844039917
        ],
        "last_10": [
          0.3559091091156006,
          0.14000409841537476,
          0.10443106293678284,
          0.29991498589515686,
          0.07426144182682037,
          -0.3538684844970703,
          0.3982137143611908,
          -0.0638105496764183,
          0.20404425263404846,
          0.44080498814582825
        ],
        "zero_count": 0,
        "mean": -0.009507838636636734,
        "std": 0.3385304808616638,
        "norm": 18.171463012695312,
        "nan_count": 0,
        "inf_count": 0
      }
    ],
    "outputs": [
      {
        "name": "model.layers.2.self_attn.v_proj_output",
        "shape": [
          1,
          5,
          192
        ],
        "dtype": "torch.float32",
        "device": "cpu",
        "requires_grad": false,
        "numel": 960,
        "min": -0.6559101343154907,
        "max": 0.675616979598999,
        "first_10": [
          0.10930074751377106,
