[
  {
    "id": "000_embed_tokens",
    "order": 1,
    "module_name": "embed_tokens",
    "module_type": "Gemma3TextScaledWordEmbedding",
    "module_class": "Gemma3TextScaledWordEmbedding",
    "inputs": [
      {
        "name": "embed_tokens_input_0",
        "shape": [
          1,
          7
        ],
        "dtype": "torch.int64",
        "device": "cpu",
        "requires_grad": false,
        "numel": 7,
        "min": 1,
        "max": 88108,
        "first_10": [
          2,
          88108,
          564,
          1461,
          1070,
          19406,
          1
        ],
        "last_10": [
          2,
          88108,
          564,
          1461,
          1070,
          19406,
          1
        ],
        "zero_count": 0,
        "mean": 15801.7138671875,
        "std": 32647.998046875,
        "norm": 90239.734375,
        "nan_count": 0,
        "inf_count": 0
      }
    ],
    "outputs": [
      {
        "name": "embed_tokens_output",
        "shape": [
          1,
          7,
          768
        ],
        "dtype": "torch.float32",
        "device": "cpu",
        "requires_grad": false,
        "numel": 5376,
        "min": -13.080958366394043,
        "max": 10.702561378479004,
        "first_10": [
          -2.477302312850952,
          -1.2636504173278809,
          0.3826928734779358,
          0.06365708261728287,
          -0.820263147354126,
          -0.9725850224494934,
          0.4710817039012909,
          -0.11057573556900024,
          1.1160361766815186,
          0.26941946148872375
        ],
        "last_10": [
          -2.1493282318115234,
          -0.6306940913200378,
          -1.1066092252731323,
          -2.5482146739959717,
          1.7686560153961182,
          1.0899485349655151,
          -0.6922177672386169,
          5.721008777618408,
          3.196016550064087,
          -1.2484151124954224
        ],
        "zero_count": 0,
        "mean": -0.013574367389082909,
        "std": 1.632226824760437,
        "norm": 119.66985321044922,
        "nan_count": 0,
        "inf_count": 0
      }
    ],
    "parameters": {
      "weight": {
        "name": "embed_tokens_weight",
        "shape": [
          262144,
          768
        ],
        "dtype": "torch.float32",
        "device": "cpu",
        "requires_grad": true,
        "numel": 201326592,
        "min": -0.6632423400878906,
        "max": 0.9187932014465332,
        "first_10": [
          0.0808246061205864,
          -0.01816735975444317,
          0.02295159175992012,
          0.017070919275283813,
          -0.0995902270078659,
          -0.36502784490585327,
          0.009475629776716232,
          0.013409197330474854,
          -0.021984221413731575,
          0.06105685979127884
        ],
        "last_10": [
          0.026465948671102524,
          -0.04095828905701637,
          0.06920114159584045,
          -0.00501775648444891,
          0.03168144077062607,
          -0.0887412503361702,
          0.03904152661561966,
          -0.391409695148468,
          -0.0521768257021904,
          0.01987053081393242
        ],
        "zero_count": 0,
        "mean": -0.00016269028128590435,
        "std": 0.06669361889362335,
        "norm": 919.6156616210938,
        "nan_count": 0,
        "inf_count": 0
      }
    }
  },
  {
    "id": "001_layers.0.input_layernorm",
    "order": 2,
    "module_name": "layers.0.input_layernorm",
    "module_type": "Gemma3RMSNorm",
    "module_class": "Gemma3RMSNorm",
    "inputs": [
      {
        "name": "layers.0.input_layernorm_input_0",
        "shape": [
          1,
          7,
          768
        ],
        "dtype": "torch.float32",
        "device": "cpu",
        "requires_grad": false,
        "numel": 5376,
        "min": -13.080958366394043,
        "max": 10.702561378479004,
        "first_10": [
          -2.477302312850952,
          -1.2636504173278809,
          0.3826928734779358,
          0.06365708261728287,
          -0.820263147354126,
          -0.9725850224494934,
          0.4710817039012909,
          -0.11057573556900024,
          1.1160361766815186,
          0.26941946148872375
        ],
        "last_10": [
          -2.1493282318115234,
          -0.6306940913200378,
          -1.1066092252731323,
          -2.5482146739959717,
          1.7686560153961182,
          1.0899485349655151,
          -0.6922177672386169,
          5.721008777618408,
          3.196016550064087,
          -1.2484151124954224
        ],
        "zero_count": 0,
        "mean": -0.013574367389082909,
        "std": 1.632226824760437,
        "norm": 119.66985321044922,
        "nan_count": 0,
        "inf_count": 0
      }
    ],
    "outputs": [
      {
        "name": "layers.0.input_layernorm_output",
        "shape": [
          1,
          7,
          768
        ],
        "dtype": "torch.float32",
        "device": "cpu",
        "requires_grad": false,
        "numel": 5376,
        "min": -129.11495971679688,
        "max": 262.95947265625,
        "first_10": [
          -30.318098068237305,
          -13.217909812927246,
          3.8043212890625,
          0.63350909948349,
          -7.917629718780518,
          -13.831581115722656,
          4.474942684173584,
          -0.9933174848556519,
          11.816372871398926,
          2.664897918701172
        ],
        "last_10": [
          -13.23598861694336,
          -5.045870304107666,
          -7.587230682373047,
          -15.341130256652832,
          12.761270523071289,
          7.231410980224609,
          -4.46995735168457,
          87.9295425415039,
          21.287275314331055,
          -8.23403549194336
        ],
        "zero_count": 0,
        "mean": -0.16648909449577332,
        "std": 16.408580780029297,
        "norm": 1203.0469970703125,
        "nan_count": 0,
        "inf_count": 0
      }
    ],
    "parameters": {
      "weight": {
        "name": "layers.0.input_layernorm_weight",
        "shape": [
          768
        ],
        "dtype": "torch.float32",
        "device": "cpu",
        "requires_grad": true,
        "numel": 768,
        "min": 6.869060516357422,
        "max": 65.24540710449219,
        "first_10": [
          13.771751403808594,
          11.62539291381836,
          10.998745918273926,
          11.011996269226074,
          10.650673866271973,
          16.165376663208008,
          10.465692520141602,
          9.842697143554688,
          11.779532432556152,
          10.938799858093262
        ],
        "last_10": [
          10.880304336547852,
          14.434453964233398,
          12.227048873901367,
          10.614360809326172,
          12.919527053833008,
          11.79944133758545,
          11.457605361938477,
          28.650779724121094,
          11.849464416503906,
          11.724117279052734
        ],
        "zero_count": 0,
        "mean": 13.211769104003906,
        "std": 5.353967666625977,
        "norm": 395.02032470703125,
        "nan_count": 0,
        "inf_count": 0
      }
    }
  },
  {
    "id": "002_layers.0.self_attn.q_proj",
    "order": 3,
    "module_name": "layers.0.self_attn.q_proj",
    "module_type": "Linear",
    "module_class": "Linear",
    "inputs": [
      {
        "name": "layers.0.self_attn.q_proj_input_0",
        "shape": [
          1,
          7,
          768
        ],
        "dtype": "torch.float32",
        "device": "cpu",
        "requires_grad": false,
        "numel": 5376,
        "min": -129.11495971679688,
        "max": 262.95947265625,
        "first_10": [
          -30.318098068237305,
          -13.217909812927246,
          3.8043212890625,
          0.63350909948349,
          -7.917629718780518,
          -13.831581115722656,
          4.474942684173584,
          -0.9933174848556519,
          11.816372871398926,
          2.664897918701172
        ],
        "last_10": [
          -13.23598861694336,
          -5.045870304107666,
          -7.587230682373047,
          -15.341130256652832,
          12.761270523071289,
          7.231410980224609,
          -4.46995735168457,
          87.9295425415039,
          21.287275314331055,
          -8.23403549194336
        ],
        "zero_count": 0,
        "mean": -0.16648909449577332,
        "std": 16.408580780029297,
        "norm": 1203.0469970703125,
        "nan_count": 0,
        "inf_count": 0
      }
    ],
    "outputs": [
      {
        "name": "layers.0.self_attn.q_proj_output",
        "shape": [
          1,
          7,
          768
        ],
        "dtype": "torch.float32",
        "device": "cpu",
        "requires_grad": false,
        "numel": 5376,
        "min": -43.86674118041992,
        "max": 48.68406677246094,
        "first_10": [
          0.3887830376625061,
          3.351538896560669,
          -3.1458942890167236,
          0.48394227027893066,
          -5.401116371154785,
          3.701035976409912,
          -4.790302276611328,
          0.42496490478515625,
          -6.131454944610596,
          2.385254144668579
        ],
        "last_10": [
          2.4578323364257812,
          -7.078050136566162,
          1.9613218307495117,
          -0.4571880102157593,
          -0.6431244611740112,
          -2.448065757751465,
          -1.3958616256713867,
          1.229301929473877,
          -0.23432433605194092,
          -0.2790461778640747
        ],
        "zero_count": 0,
        "mean": 0.18778757750988007,
        "std": 7.018822193145752,
        "norm": 514.7649536132812,
        "nan_count": 0,
        "inf_count": 0
      }
    ],
    "parameters": {
      "weight": {
        "name": "layers.0.self_attn.q_proj_weight",
        "shape": [
          768,
          768
        ],
        "dtype": "torch.float32",
        "device": "cpu",
        "requires_grad": true,
        "numel": 589824,
        "min": -0.059718288481235504,
        "max": 0.05983906239271164,
        "first_10": [
          0.004457538947463036,
          0.004015621729195118,
          -0.001596560818143189,
          -0.00750212837010622,
          -0.0018526655621826649,
          0.0037886269856244326,
          0.013366032391786575,
          -0.0033216620795428753,
          -0.00728971790522337,
          0.003818289842456579
        ],
        "last_10": [
          0.00806517992168665,
          -0.0026894814800471067,
          -0.017908483743667603,
          0.0005922439740970731,
          -0.008424362167716026,
          -0.013402601704001427,
          0.008167159743607044,
          -0.017401225864887238,
          -0.004434297326952219,
          -0.0014318663161247969
        ],
        "zero_count": 0,
        "mean": 9.339005373476539e-06,
        "std": 0.008015595376491547,
        "norm": 6.155942440032959,
        "nan_count": 0,
        "inf_count": 0
      }
    }
  },
  {
    "id": "003_layers.0.self_attn.k_proj",
    "order": 4,
    "module_name": "layers.0.self_attn.k_proj",
    "module_type": "Linear",
    "module_class": "Linear",
    "inputs": [
      {
        "name": "layers.0.self_attn.k_proj_input_0",
        "shape": [
          1,
          7,
          768
        ],
        "dtype": "torch.float32",
        "device": "cpu",
        "requires_grad": false,
        "numel": 5376,
        "min": -129.11495971679688,
        "max": 262.95947265625,
        "first_10": [
          -30.318098068237305,
          -13.217909812927246,
          3.8043212890625,
          0.63350909948349,
          -7.917629718780518,
          -13.831581115722656,
          4.474942684173584,
          -0.9933174848556519,
          11.816372871398926,
          2.664897918701172
        ],
        "last_10": [
          -13.23598861694336,
          -5.045870304107666,
          -7.587230682373047,
          -15.341130256652832,
          12.761270523071289,
          7.231410980224609,
          -4.46995735168457,
          87.9295425415039,
          21.287275314331055,
          -8.23403549194336
        ],
        "zero_count": 0,
        "mean": -0.16648909449577332,
        "std": 16.408580780029297,
        "norm": 1203.0469970703125,
        "nan_count": 0,
        "inf_count": 0
      }
    ],
    "outputs": [
      {
        "name": "layers.0.self_attn.k_proj_output",
        "shape": [
          1,
          7,
          256
        ],
        "dtype": "torch.float32",
        "device": "cpu",
        "requires_grad": false,
        "numel": 1792,
        "min": -37.71154022216797,
        "max": 47.05772018432617,
        "first_10": [
          0.9482555389404297,
          0.5784203410148621,
          0.15434527397155762,
          0.14805006980895996,
          0.32564619183540344,
          0.821070671081543,
          -0.9551006555557251,
          0.05978959798812866,
          -9.037637710571289,
          0.3974881172180176
        ],
        "last_10": [
          3.4061479568481445,
          18.547565460205078,
          -5.63254976272583,
          -0.6382596492767334,
          -2.370680809020996,
          2.5257697105407715,
          -2.741736650466919,
          3.1282882690429688,
          -1.7282251119613647,
          2.643249034881592
        ],
        "zero_count": 0,
        "mean": 0.22811725735664368,
        "std": 6.326501846313477,
        "norm": 267.9129943847656,
        "nan_count": 0,
        "inf_count": 0
      }
    ],
    "parameters": {
      "weight": {
        "name": "layers.0.self_attn.k_proj_weight",
        "shape": [
          256,
          768
        ],
        "dtype": "torch.float32",
        "device": "cpu",
        "requires_grad": true,
        "numel": 196608,
        "min": -0.06933163851499557,
        "max": 0.04714742302894592,
        "first_10": [
          0.017479531466960907,
          -0.003520711325109005,
          -0.000722294207662344,
          0.0009113639825955033,
          0.008276424370706081,
          0.0031664608977735043,
          -0.005573416594415903,
          0.006882806774228811,
          -0.00567815825343132,
          0.001592256361618638
        ],
        "last_10": [
          0.01718268357217312,
          0.001284840633161366,
          -0.021971169859170914,
          -0.0023933062329888344,
          -0.010611903853714466,
          -0.007415667176246643,
          0.009665676392614841,
          -0.014863919466733932,
          -0.01145393867045641,
          0.011871544644236565
        ],
        "zero_count": 0,
        "mean": 9.144946488959249e-06,
        "std": 0.007864654064178467,
        "norm": 3.4872171878814697,
        "nan_count": 0,
        "inf_count": 0
      }
    }
  },
  {
    "id": "004_layers.0.self_attn.v_proj",
    "order": 5,
    "module_name": "layers.0.self_attn.v_proj",
    "module_type": "Linear",
    "module_class": "Linear",
    "inputs": [
      {
        "name": "layers.0.self_attn.v_proj_input_0",
        "shape": [
          1,
          7,
          768
        ],
        "dtype": "torch.float32",
        "device": "cpu",
        "requires_grad": false,
        "numel": 5376,
        "min": -129.11495971679688,
        "max": 262.95947265625,
        "first_10": [
          -30.318098068237305,
          -13.217909812927246,
          3.8043212890625,
          0.63350909948349,
          -7.917629718780518,
          -13.831581115722656,
          4.474942684173584,
          -0.9933174848556519,
          11.816372871398926,
          2.664897918701172
        ],
        "last_10": [
          -13.23598861694336,
          -5.045870304107666,
          -7.587230682373047,
          -15.341130256652832,
          12.761270523071289,
          7.231410980224609,
          -4.46995735168457,
          87.9295425415039,
          21.287275314331055,
          -8.23403549194336
        ],
        "zero_count": 0,
        "mean": -0.16648909449577332,
        "std": 16.408580780029297,
        "norm": 1203.0469970703125,
        "nan_count": 0,
        "inf_count": 0
      }
    ],
    "outputs": [
      {
        "name": "layers.0.self_attn.v_proj_output",
        "shape": [
          1,
          7,
          256
        ],
        "dtype": "torch.float32",
        "device": "cpu",
        "requires_grad": false,
        "numel": 1792,
        "min": -15.80223274230957,
        "max": 25.15123748779297,
        "first_10": [
          -0.19047972559928894,
          0.631655216217041,
          -2.821593761444092,
          -0.5566350221633911,
          -0.6524765491485596,
          1.4340227842330933,
          0.9365267157554626,
          0.07686394453048706,
          -2.8396809101104736,
          -1.2724430561065674
        ],
        "last_10": [
          1.3050856590270996,
          0.10212904214859009,
          -4.919314384460449,
          2.1930313110351562,
          -0.542229175567627,
          -1.5569565296173096,
          2.8126730918884277,
          -1.5750327110290527,
          3.4985499382019043,
          -0.08559703826904297
        ],
        "zero_count": 0,
        "mean": 0.09951061755418777,
        "std": 2.9793951511383057,
        "norm": 126.15896606445312,
        "nan_count": 0,
        "inf_count": 0
      }
    ],
    "parameters": {
      "weight": {
        "name": "layers.0.self_attn.v_proj_weight",
        "shape": [
          256,
          768
        ],
        "dtype": "torch.float32",
        "device": "cpu",
        "requires_grad": true,
        "numel": 196608,
        "min": -0.052403099834918976,
        "max": 0.06491647660732269,
        "first_10": [
          0.01653893105685711,
          -0.0005979716079309583,
          0.011964324861764908,
          0.008740507997572422,
          -0.0037220576778054237,
          0.003735004924237728,
          -0.0041199130937457085,
          -0.002800969174131751,
          -0.001889929873868823,
          -0.002930165035650134
        ],
        "last_10": [
          -0.006778880022466183,
          -0.008648560382425785,
          0.0015731696039438248,
          -0.0057011740282177925,
          -0.015193672850728035,
          -0.008288796059787273,
          0.012293526902794838,
          -0.0003013320383615792,
          0.0132667301222682,
          0.015290368348360062
        ],
        "zero_count": 0,
        "mean": -3.251730049669277e-06,
        "std": 0.007539044599980116,
        "norm": 3.3428406715393066,
        "nan_count": 0,
        "inf_count": 0
      }
    }
  },
  {
    "id": "005_layers.0.self_attn.q_norm",
    "order": 6,
    "module_name": "layers.0.self_attn.q_norm",
    "module_type": "Gemma3RMSNorm",
    "module_class": "Gemma3RMSNorm",
    "inputs": [
      {
        "name": "layers.0.self_attn.q_norm_input_0",
        "shape": [
          1,
          3,
          7,
          256
        ],
        "dtype": "torch.float32",
        "device": "cpu",
        "requires_grad": false,
        "numel": 5376,
        "min": -43.86674118041992,
        "max": 48.68406677246094,
        "first_10": [
          0.3887830376625061,
          3.351538896560669,
          -3.1458942890167236,
          0.48394227027893066,
          -5.401116371154785,
          3.701035976409912,
          -4.790302276611328,
          0.42496490478515625,
          -6.131454944610596,
          2.385254144668579
        ],
        "last_10": [
          2.4578323364257812,
          -7.078050136566162,
          1.9613218307495117,
          -0.4571880102157593,
          -0.6431244611740112,
          -2.448065757751465,
          -1.3958616256713867,
          1.229301929473877,
          -0.23432433605194092,
          -0.2790461778640747
        ],
        "zero_count": 0,
        "mean": 0.18778757750988007,
        "std": 7.018822193145752,
        "norm": 514.7649536132812,
        "nan_count": 0,
        "inf_count": 0
      }
    ],
    "outputs": [
      {
        "name": "layers.0.self_attn.q_norm_output",
        "shape": [
          1,
          3,
          7,
          256
        ],
        "dtype": "torch.float32",
        "device": "cpu",
        "requires_grad": false,
        "numel": 5376,
        "min": -9.120599746704102,
        "max": 8.255960464477539,
        "first_10": [
          0.1519453227519989,
          1.6530735492706299,
          0.4565025568008423,
          0.0987328514456749,
          -1.367156982421875,
          0.6147310137748718,
          -1.534438967704773,
          0.1036820039153099,
          -1.1722685098648071,
          0.7755711674690247
        ],
        "last_10": [
          0.8841097354888916,
          -3.1796979904174805,
          0.7111338973045349,
          -0.09806857258081436,
          -0.17871248722076416,
          -0.9386019110679626,
          -0.5666730999946594,
          0.382217139005661,
          -0.10534459352493286,
          -0.10174508392810822
        ],
        "zero_count": 0,
        "mean": 0.017636796459555626,
        "std": 1.1060987710952759,
        "norm": 81.10326385498047,
        "nan_count": 0,
        "inf_count": 0
      }
    ],
    "parameters": {
      "weight": {
        "name": "layers.0.self_attn.q_norm_weight",
        "shape": [
          256
        ],
        "dtype": "torch.float32",
        "device": "cpu",
        "requires_grad": true,
        "numel": 256,
        "min": -2.4690186977386475,
        "max": 2.0300357341766357,
        "first_10": [
          1.0459150075912476,
          1.5819957256317139,
          -1.7596380710601807,
          0.068011075258255,
          0.3250811696052551,
          -0.13050034642219543,
          0.6768503189086914,
          0.2771971821784973,
          0.0008551343344151974,
          0.7021375298500061
        ],
        "last_10": [
          0.9843462705612183,
          1.478196620941162,
          1.0001660585403442,
          0.18331007659435272,
          0.5329338312149048,
          1.115056037902832,
          1.2395139932632446,
          0.7152013778686523,
          1.480038046836853,
          1.011411190032959
        ],
        "zero_count": 0,
        "mean": 0.4492550492286682,
        "std": 0.6894840598106384,
        "norm": 13.148859977722168,
        "nan_count": 0,
        "inf_count": 0
      }
    }
  },
  {
    "id": "006_layers.0.self_attn.k_norm",
    "order": 7,
    "module_name": "layers.0.self_attn.k_norm",
    "module_type": "Gemma3RMSNorm",
    "module_class": "Gemma3RMSNorm",
    "inputs": [
      {
        "name": "layers.0.self_attn.k_norm_input_0",
        "shape": [
          1,
          1,
          7,
          256
        ],
        "dtype": "torch.float32",
        "device": "cpu",
        "requires_grad": false,
        "numel": 1792,
        "min": -37.71154022216797,
        "max": 47.05772018432617,
        "first_10": [
          0.9482555389404297,
          0.5784203410148621,
          0.15434527397155762,
          0.14805006980895996,
          0.32564619183540344,
          0.821070671081543,
          -0.9551006555557251,
          0.05978959798812866,
          -9.037637710571289,
          0.3974881172180176
        ],
        "last_10": [
          3.4061479568481445,
          18.547565460205078,
          -5.63254976272583,
          -0.6382596492767334,
          -2.370680809020996,
          2.5257697105407715,
          -2.741736650466919,
          3.1282882690429688,
          -1.7282251119613647,
          2.643249034881592
        ],
        "zero_count": 0,
        "mean": 0.22811725735664368,
        "std": 6.326501846313477,
        "norm": 267.9129943847656,
        "nan_count": 0,
        "inf_count": 0
      }
    ],
    "outputs": [
      {
        "name": "layers.0.self_attn.k_norm_output",
        "shape": [
          1,
          1,
          7,
          256
        ],
        "dtype": "torch.float32",
        "device": "cpu",
        "requires_grad": false,
        "numel": 1792,
        "min": -5.660574436187744,
        "max": 7.637026309967041,
        "first_10": [
          0.2459360957145691,
          0.11071343719959259,
          0.018123731017112732,
          0.020769385620951653,
          0.07968343049287796,
          0.07294320315122604,
          -0.20613667368888855,
          0.009935260750353336,
          -0.04140132665634155,
          0.07572239637374878
        ],
        "last_10": [
          0.7992237210273743,
          5.201683044433594,
          -1.4005458354949951,
          -0.2580697536468506,
          -0.7257094979286194,
          0.5870898365974426,
          -0.5776166319847107,
          0.8694612979888916,
          -0.32367414236068726,
          0.7755516767501831
        ],
        "zero_count": 0,
        "mean": 0.06264620274305344,
        "std": 1.0045814514160156,
        "norm": 42.59672927856445,
        "nan_count": 0,
        "inf_count": 0
      }
    ],
    "parameters": {
      "weight": {
        "name": "layers.0.self_attn.k_norm_weight",
        "shape": [
          256
        ],
        "dtype": "torch.float32",
        "device": "cpu",
        "requires_grad": true,
        "numel": 256,
        "min": -2.2868778705596924,
        "max": 4.9578142166137695,
        "first_10": [
          0.8005052804946899,
          0.32878378033638,
          -0.18482321500778198,
          -0.026104094460606575,
          0.6987112164497375,
          -0.38326042890548706,
          0.49831676483154297,
          0.153589129447937,
          -0.9681978225708008,
          0.3225061893463135
        ],
        "last_10": [
          0.6633381247520447,
          0.9880746603012085,
          0.7626577615737915,
          1.8662590980529785,
          1.1700286865234375,
          0.6477318406105042,
          0.49344658851623535,
          0.9702402353286743,
          0.3276495039463043,
          1.0799285173416138
        ],
        "zero_count": 0,
        "mean": 0.43707066774368286,
        "std": 0.7798370718955994,
        "norm": 14.282194137573242,
        "nan_count": 0,
        "inf_count": 0
      }
    }
  },
  {
    "id": "007_layers.0.self_attn.o_proj",
    "order": 8,
    "module_name": "layers.0.self_attn.o_proj",
    "module_type": "Linear",
    "module_class": "Linear",
    "inputs": [
      {
        "name": "layers.0.self_attn.o_proj_input_0",
        "shape": [
          1,
          7,
          768
        ],
        "dtype": "torch.float32",
        "device": "cpu",
        "requires_grad": false,
        "numel": 5376,
        "min": -14.754683494567871,
        "max": 25.124187469482422,
        "first_10": [
          -0.19047972559928894,
          0.631655216217041,
          -2.821593761444092,
          -0.5566350221633911,
          -0.6524765491485596,
          1.4340227842330933,
          0.9365267157554626,
          0.07686394453048706,
          -2.8396809101104736,
          -1.2724430561065674
        ],
        "last_10": [
          -2.088566541671753,
          -0.025558926165103912,
          -0.9876888990402222,
          1.3683289289474487,
          -0.5881507396697998,
          0.16551503539085388,
          0.809123158454895,
          -0.6462826728820801,
          2.007369041442871,
          -0.2429787814617157
        ],
        "zero_count": 0,
        "mean": 0.14822018146514893,
        "std": 1.9280515909194946,
        "norm": 141.7710723876953,
        "nan_count": 0,
        "inf_count": 0
      }
    ],
    "outputs": [
      {
        "name": "layers.0.self_attn.o_proj_output",
        "shape": [
          1,
          7,
          768
        ],
        "dtype": "torch.float32",
        "device": "cpu",
        "requires_grad": false,
        "numel": 5376,
        "min": -6.423242092132568,
        "max": 4.772079944610596,
        "first_10": [
          -0.3779955506324768,
          -0.14444078505039215,
          0.3628699779510498,
          -0.035884685814380646,
          -0.06462811678647995,
          -0.6456531882286072,
          -0.8867893815040588,
          -0.12370826303958893,
          0.012052223086357117,
          0.39969393610954285
        ],
        "last_10": [
          -0.3356463611125946,
          -0.028985433280467987,
          0.8986057043075562,
          1.1091954708099365,
          0.5758756399154663,
          0.5815268754959106,
          -1.0386407375335693,
          0.07800734043121338,
          -0.16813135147094727,
          -0.5977584719657898
        ],
        "zero_count": 0,
        "mean": -0.022564081475138664,
        "std": 0.5819560289382935,
        "norm": 42.697818756103516,
        "nan_count": 0,
        "inf_count": 0
      }
    ],
    "parameters": {
      "weight": {
        "name": "layers.0.self_attn.o_proj_weight",
        "shape": [
          768,
          768
        ],
        "dtype": "torch.float32",
        "device": "cpu",
        "requires_grad": true,
        "numel": 589824,
        "min": -0.08369003236293793,
        "max": 0.07237040996551514,
        "first_10": [
          -0.006121734157204628,
          0.0072639742866158485,
          -0.004167680162936449,
          0.0005502395215444267,
          -0.0030461023561656475,
          0.0019133321475237608,
          0.0006337868981063366,
          0.00686594657599926,
          0.02246883697807789,
          -0.0008798274211585522
        ],
        "last_10": [
          -0.0048192995600402355,
          0.00945169199258089,
          -0.002436814596876502,
          0.009921959601342678,
          0.002468767110258341,
          0.00503688445314765,
          -0.00828063115477562,
          -0.004185948055237532,
          -0.010936368256807327,
          0.009941842406988144
        ],
        "zero_count": 0,
        "mean": -9.146408501692349e-07,
        "std": 0.00788373313844204,
        "norm": 6.054670333862305,
        "nan_count": 0,
        "inf_count": 0
      }
    }
  },
  {
    "id": "008_layers.0.self_attn",
    "order": 9,
    "module_name": "layers.0.self_attn",
    "module_type": "Gemma3Attention",
    "module_class": "Gemma3Attention",
    "inputs": [],
    "outputs": [
      {
        "name": "layers.0.self_attn_output_0",
        "shape": [
          1,
          7,
          768
        ],
        "dtype": "torch.float32",
        "device": "cpu",
        "requires_grad": false,
        "numel": 5376,
        "min": -6.423242092132568,
        "max": 4.772079944610596,
        "first_10": [
          -0.3779955506324768,
          -0.14444078505039215,
          0.3628699779510498,
          -0.035884685814380646,
          -0.06462811678647995,
          -0.6456531882286072,
          -0.8867893815040588,
          -0.12370826303958893,
          0.012052223086357117,
          0.39969393610954285
        ],
        "last_10": [
          -0.3356463611125946,
          -0.028985433280467987,
          0.8986057043075562,
          1.1091954708099365,
          0.5758756399154663,
          0.5815268754959106,
          -1.0386407375335693,
          0.07800734043121338,
          -0.16813135147094727,
          -0.5977584719657898
        ],
        "zero_count": 0,
        "mean": -0.022564081475138664,
        "std": 0.5819560289382935,
        "norm": 42.697818756103516,
        "nan_count": 0,
        "inf_count": 0
      }
    ],
    "parameters": {}
  },
  {
    "id": "009_layers.0.post_attention_layernorm",
    "order": 10,
    "module_name": "layers.0.post_attention_layernorm",
    "module_type": "Gemma3RMSNorm",
    "module_class": "Gemma3RMSNorm",
    "inputs": [
      {
        "name": "layers.0.post_attention_layernorm_input_0",
        "shape": [
          1,
          7,
          768
        ],
        "dtype": "torch.float32",
        "device": "cpu",
        "requires_grad": false,
        "numel": 5376,
        "min": -6.423242092132568,
        "max": 4.772079944610596,
        "first_10": [
          -0.3779955506324768,
          -0.14444078505039215,
          0.3628699779510498,
          -0.035884685814380646,
          -0.06462811678647995,
          -0.6456531882286072,
          -0.8867893815040588,
          -0.12370826303958893,
          0.012052223086357117,
          0.39969393610954285
        ],
        "last_10": [
          -0.3356463611125946,
          -0.028985433280467987,
          0.8986057043075562,
          1.1091954708099365,
          0.5758756399154663,
          0.5815268754959106,
          -1.0386407375335693,
          0.07800734043121338,
          -0.16813135147094727,
          -0.5977584719657898
        ],
        "zero_count": 0,
        "mean": -0.022564081475138664,
        "std": 0.5819560289382935,
        "norm": 42.697818756103516,
        "nan_count": 0,
        "inf_count": 0
      }
    ],
    "outputs": [
      {
        "name": "layers.0.post_attention_layernorm_output",
        "shape": [
          1,
          7,
          768
        ],
        "dtype": "torch.float32",
        "device": "cpu",
        "requires_grad": false,
        "numel": 5376,
        "min": -50.64352798461914,
        "max": 12.487370491027832,
        "first_10": [
          -3.0801680088043213,
          -0.05903661996126175,
          0.06795834004878998,
          -0.006062098778784275,
          -0.038303155452013016,
          -0.5212643146514893,
          -0.1841287463903427,
          -0.028685597702860832,
          0.005756846629083157,
          0.2436545342206955
        ],
        "last_10": [
          -0.08132490515708923,
          -0.00605315575376153,
          0.13139201700687408,
          0.0034704909194260836,
          0.20731592178344727,
          0.2177962213754654,
          -0.4465637505054474,
          0.06332460790872574,
          -0.06968610733747482,
          -0.18223796784877777
        ],
        "zero_count": 0,
        "mean": -0.10636729001998901,
        "std": 1.7162399291992188,
        "norm": 126.0665283203125,
        "nan_count": 0,
        "inf_count": 0
      }
    ],
    "parameters": {
      "weight": {
        "name": "layers.0.post_attention_layernorm_weight",
        "shape": [
          768
        ],
        "dtype": "torch.float32",
        "device": "cpu",
        "requires_grad": true,
        "numel": 768,
        "min": -1.0051898956298828,
        "max": 74.42657470703125,
        "first_10": [
          3.0447750091552734,
          -0.7971204519271851,
          -0.9070395231246948,
          -0.9161466360092163,
          -0.7058155536651611,
          -0.5992575287818909,
          -0.8969358205795288,
          -0.8849009275436401,
          -0.7629040479660034,
          -0.6974107027053833
        ],
        "last_10": [
          -0.860762357711792,
          -0.8799901008605957,
          -0.9159737825393677,
          -0.9982019662857056,
          -0.7931197881698608,
          -0.784773588180542,
          -0.752922534942627,
          -0.5334995985031128,
          -0.7618160247802734,
          -0.8248023986816406
        ],
        "zero_count": 0,
        "mean": -0.42427191138267517,
        "std": 2.8862674236297607,
        "norm": 80.79460144042969,
        "nan_count": 0,
        "inf_count": 0
      }
    }
  },
  {
    "id": "010_layers.0.pre_feedforward_layernorm",
    "order": 11,
    "module_name": "layers.0.pre_feedforward_layernorm",
    "module_type": "Gemma3RMSNorm",
    "module_class": "Gemma3RMSNorm",
    "inputs": [
      {
        "name": "layers.0.pre_feedforward_layernorm_input_0",
        "shape": [
          1,
          7,
          768
        ],
        "dtype": "torch.float32",
        "device": "cpu",
        "requires_grad": false,
        "numel": 5376,
        "min": -49.15422058105469,
        "max": 14.233797073364258,
        "first_10": [
          -5.557470321655273,
          -1.322687029838562,
          0.45065122842788696,
          0.05759498476982117,
          -0.8585662841796875,
          -1.493849277496338,
          0.2869529724121094,
          -0.13926133513450623,
          1.1217930316925049,
          0.5130739808082581
        ],
        "last_10": [
          -2.2306530475616455,
          -0.6367472410202026,
          -0.9752172231674194,
          -2.5447442531585693,
          1.9759719371795654,
          1.3077447414398193,
          -1.1387815475463867,
          5.784333229064941,
          3.1263303756713867,
          -1.4306530952453613
        ],
        "zero_count": 0,
        "mean": -0.11994164437055588,
        "std": 2.29910945892334,
        "norm": 168.78707885742188,
        "nan_count": 0,
        "inf_count": 0
      }
    ],
    "outputs": [
      {
        "name": "layers.0.pre_feedforward_layernorm_output",
        "shape": [
          1,
          7,
          768
        ],
        "dtype": "torch.float32",
        "device": "cpu",
        "requires_grad": false,
        "numel": 5376,
        "min": -41.286861419677734,
        "max": 57.275569915771484,
        "first_10": [
          -13.582653045654297,
          -3.7471764087677,
          0.8863352537155151,
          0.11444022506475449,
          -2.1995797157287598,
          -6.0359907150268555,
          0.5376847386360168,
          -0.24647492170333862,
          2.9889302253723145,
          1.4126075506210327
        ],
        "last_10": [
          -3.3817355632781982,
          -1.2170051336288452,
          -1.5296337604522705,
          -5.592211723327637,
          4.124910831451416,
          2.755112886428833,
          -2.4754908084869385,
          40.453468322753906,
          6.582738876342773,
          -3.1498632431030273
        ],
        "zero_count": 0,
        "mean": -0.17855410277843475,
        "std": 4.892602920532227,
        "norm": 358.9370422363281,
        "nan_count": 0,
        "inf_count": 0
      }
    ],
    "parameters": {
      "weight": {
        "name": "layers.0.pre_feedforward_layernorm_weight",
        "shape": [
          768
        ],
        "dtype": "torch.float32",
        "device": "cpu",
        "requires_grad": true,
        "numel": 768,
        "min": -0.9994089603424072,
        "max": 25.43514633178711,
        "first_10": [
          3.779510021209717,
          4.540168762207031,
          2.8462135791778564,
          2.8857064247131348,
          4.01004695892334,
          6.90164852142334,
          2.664316177368164,
          2.4611318111419678,
          4.2104949951171875,
          4.384153842926025
        ],
        "last_10": [
          2.7559077739715576,
          3.735137701034546,
          2.885916233062744,
          4.444358825683594,
          4.171792507171631,
          4.219438076019287,
          4.38552713394165,
          16.32645606994629,
          4.216498374938965,
          4.454622268676758
        ],
        "zero_count": 0,
        "mean": 4.554406642913818,
        "std": 2.387174129486084,
        "norm": 142.4821319580078,
        "nan_count": 0,
        "inf_count": 0
      }
    }
  },
  {
    "id": "011_layers.0.mlp.gate_proj",
    "order": 12,
    "module_name": "layers.0.mlp.gate_proj",
    "module_type": "Linear",
    "module_class": "Linear",
    "inputs": [
      {
        "name": "layers.0.mlp.gate_proj_input_0",
        "shape": [
          1,
          7,
          768
        ],
        "dtype": "torch.float32",
        "device": "cpu",
        "requires_grad": false,
        "numel": 5376,
        "min": -41.286861419677734,
        "max": 57.275569915771484,
        "first_10": [
          -13.582653045654297,
          -3.7471764087677,
          0.8863352537155151,
          0.11444022506475449,
          -2.1995797157287598,
          -6.0359907150268555,
          0.5376847386360168,
          -0.24647492170333862,
          2.9889302253723145,
          1.4126075506210327
        ],
        "last_10": [
          -3.3817355632781982,
          -1.2170051336288452,
          -1.5296337604522705,
          -5.592211723327637,
          4.124910831451416,
          2.755112886428833,
          -2.4754908084869385,
          40.453468322753906,
          6.582738876342773,
          -3.1498632431030273
        ],
        "zero_count": 0,
        "mean": -0.17855410277843475,
        "std": 4.892602920532227,
        "norm": 358.9370422363281,
        "nan_count": 0,
        "inf_count": 0
      }
    ],
    "outputs": [
      {
        "name": "layers.0.mlp.gate_proj_output",
        "shape": [
          1,
          7,
          1152
        ],
        "dtype": "torch.float32",
        "device": "cpu",
        "requires_grad": false,
        "numel": 8064,
        "min": -4.108698844909668,
        "max": 5.868975639343262,
        "first_10": [
          -0.20775730907917023,
          0.6305413246154785,
          -1.6627393960952759,
          -1.5643736124038696,
          -0.1845763921737671,
          -0.018746018409729004,
          0.29749056696891785,
          -0.5662631392478943,
          -0.34384840726852417,
          -0.7666267156600952
        ],
        "last_10": [
          -0.5577700734138489,
          -1.3794704675674438,
          -0.034723371267318726,
          -0.1392453908920288,
          -0.854925274848938,
          -1.9765441417694092,
          -0.6656848788261414,
          -1.0517432689666748,
          -1.5457125902175903,
          0.3487890362739563
        ],
        "zero_count": 0,
        "mean": -0.641182005405426,
        "std": 0.8743063807487488,
        "norm": 97.3584976196289,
        "nan_count": 0,
        "inf_count": 0
      }
    ],
    "parameters": {
      "weight": {
        "name": "layers.0.mlp.gate_proj_weight",
        "shape": [
          1152,
          768
        ],
        "dtype": "torch.float32",
        "device": "cpu",
        "requires_grad": true,
        "numel": 884736,
        "min": -0.04496990889310837,
        "max": 0.04364612326025963,
        "first_10": [
          0.002265811199322343,
          -0.005159079562872648,
          0.006882420741021633,
          0.0019309604540467262,
          0.000267310650087893,
          -0.0008358097984455526,
          0.0050742351450026035,
          -0.002386869164183736,
          -0.0006998326862230897,
          0.000343307969160378
        ],
        "last_10": [
          0.007499678060412407,
          -0.010443990118801594,
          0.004513897001743317,
          0.0025682561099529266,
          0.003898107912391424,
          0.004438574425876141,
          -0.001891224063001573,
          0.002832151250913739,
          0.0012474427931010723,
          -0.00535489059984684
        ],
        "zero_count": 0,
        "mean": 5.3705032769357786e-05,
        "std": 0.005271450150758028,
        "norm": 4.958547115325928,
        "nan_count": 0,
        "inf_count": 0
      }
    }
  },
  {
    "id": "012_layers.0.mlp.act_fn",
    "order": 13,
    "module_name": "layers.0.mlp.act_fn",
    "module_type": "PytorchGELUTanh",
    "module_class": "PytorchGELUTanh",
    "inputs": [
      {
        "name": "layers.0.mlp.act_fn_input_0",
        "shape": [
          1,
          7,
          1152
        ],
        "dtype": "torch.float32",
        "device": "cpu",
        "requires_grad": false,
        "numel": 8064,
        "min": -4.108698844909668,
        "max": 5.868975639343262,
        "first_10": [
          -0.20775730907917023,
          0.6305413246154785,
          -1.6627393960952759,
          -1.5643736124038696,
          -0.1845763921737671,
          -0.018746018409729004,
          0.29749056696891785,
          -0.5662631392478943,
          -0.34384840726852417,
          -0.7666267156600952
        ],
        "last_10": [
          -0.5577700734138489,
          -1.3794704675674438,
          -0.034723371267318726,
          -0.1392453908920288,
          -0.854925274848938,
          -1.9765441417694092,
          -0.6656848788261414,
          -1.0517432689666748,
          -1.5457125902175903,
          0.3487890362739563
        ],
        "zero_count": 0,
        "mean": -0.641182005405426,
        "std": 0.8743063807487488,
        "norm": 97.3584976196289,
        "nan_count": 0,
        "inf_count": 0
      }
    ],
    "outputs": [
      {
        "name": "layers.0.mlp.act_fn_output",
        "shape": [
          1,
          7,
          1152
        ],
        "dtype": "torch.float32",
        "device": "cpu",
        "requires_grad": false,
        "numel": 8064,
        "min": -0.17004075646400452,
        "max": 5.868975639343262,
        "first_10": [
          -0.08678273856639862,
          0.4639320373535156,
          -0.08026853948831558,
          -0.09228496253490448,
          -0.07877400517463684,
          -0.009232823736965656,
          0.18353557586669922,
          -0.16175587475299835,
          -0.12567399442195892,
          -0.1699979305267334
        ],
        "last_10": [
          -0.16094255447387695,
          -0.11593639105558395,
          -0.01688077300786972,
          -0.06191253662109375,
          -0.16792051494121552,
          -0.04745147004723549,
          -0.1683361679315567,
          -0.1542075127363205,
          -0.09462754428386688,
          0.2219565510749817
        ],
        "zero_count": 0,
        "mean": -0.001561993034556508,
        "std": 0.3501511514186859,
        "norm": 31.441862106323242,
        "nan_count": 0,
        "inf_count": 0
      }
    ],
    "parameters": {}
  },
  {
    "id": "013_layers.0.mlp.up_proj",
    "order": 14,
    "module_name": "layers.0.mlp.up_proj",
    "module_type": "Linear",
    "module_class": "Linear",
    "inputs": [
      {
        "name": "layers.0.mlp.up_proj_input_0",
        "shape": [
          1,
          7,
          768
        ],
        "dtype": "torch.float32",
        "device": "cpu",
        "requires_grad": false,
        "numel": 5376,
        "min": -41.286861419677734,
        "max": 57.275569915771484,
        "first_10": [
          -13.582653045654297,
          -3.7471764087677,
          0.8863352537155151,
          0.11444022506475449,
          -2.1995797157287598,
          -6.0359907150268555,
          0.5376847386360168,
          -0.24647492170333862,
          2.9889302253723145,
          1.4126075506210327
        ],
        "last_10": [
          -3.3817355632781982,
          -1.2170051336288452,
          -1.5296337604522705,
          -5.592211723327637,
          4.124910831451416,
          2.755112886428833,
          -2.4754908084869385,
          40.453468322753906,
          6.582738876342773,
          -3.1498632431030273
        ],
        "zero_count": 0,
        "mean": -0.17855410277843475,
        "std": 4.892602920532227,
        "norm": 358.9370422363281,
        "nan_count": 0,
        "inf_count": 0
      }
    ],
    "outputs": [
      {
        "name": "layers.0.mlp.up_proj_output",
        "shape": [
          1,
          7,
          1152
        ],
        "dtype": "torch.float32",
        "device": "cpu",
        "requires_grad": false,
        "numel": 8064,
        "min": -10.275019645690918,
        "max": 15.190206527709961,
        "first_10": [
          -0.6215949654579163,
          -0.34889891743659973,
          0.2935008704662323,
          -0.8074559569358826,
          0.8279687762260437,
          0.13126586377620697,
          -0.5818911194801331,
          -0.6940755844116211,
          -0.09826682507991791,
          0.0732971802353859
        ],
        "last_10": [
          -0.43286415934562683,
          0.47943422198295593,
          -0.3986634612083435,
          0.926375687122345,
          -0.6728918552398682,
          0.4082828760147095,
          -0.20388725399971008,
          -2.3840243816375732,
          -0.6635693311691284,
          -0.15048916637897491
        ],
        "zero_count": 0,
        "mean": -0.00024512942763976753,
        "std": 0.8018043041229248,
        "norm": 71.99738311767578,
        "nan_count": 0,
        "inf_count": 0
      }
    ],
    "parameters": {
      "weight": {
        "name": "layers.0.mlp.up_proj_weight",
        "shape": [
          1152,
          768
        ],
        "dtype": "torch.float32",
        "device": "cpu",
        "requires_grad": true,
        "numel": 884736,
        "min": -0.06036863476037979,
        "max": 0.05670177936553955,
        "first_10": [
          -0.002032547490671277,
          -0.010458935052156448,
          0.00579342246055603,
          0.009161590598523617,
          0.004961106460541487,
          -0.009475909173488617,
          0.005016561131924391,
          -0.0007457535248249769,
          -0.0027480577118694782,
          0.0002635384735185653
        ],
        "last_10": [
          0.002128265332430601,
          0.00028487699455581605,
          0.003863481804728508,
          -0.0017481991089880466,
          0.003420613706111908,
          -0.0009135832078754902,
          -0.0054460554383695126,
          0.0010168051812797785,
          -0.0011955858208239079,
          0.007893100380897522
        ],
        "zero_count": 0,
        "mean": 1.133097248384729e-05,
        "std": 0.005863431841135025,
        "norm": 5.515125274658203,
        "nan_count": 0,
        "inf_count": 0
      }
    }
  },
  {
    "id": "014_layers.0.mlp.down_proj",
    "order": 15,
    "module_name": "layers.0.mlp.down_proj",
    "module_type": "Linear",
    "module_class": "Linear",
    "inputs": [
      {
        "name": "layers.0.mlp.down_proj_input_0",
        "shape": [
          1,
          7,
          1152
        ],
        "dtype": "torch.float32",
        "device": "cpu",
        "requires_grad": false,
        "numel": 8064,
        "min": -27.980302810668945,
        "max": 35.57936477661133,
        "first_10": [
          0.05394371226429939,
          -0.16186538338661194,
          -0.023558886721730232,
          0.07451604306697845,
          -0.06522241979837418,
          -0.0012119546299800277,
          -0.1067977249622345,
          0.11227080225944519,
          0.012349584139883518,
          -0.012460368685424328
        ],
        "last_10": [
          0.06966626644134521,
          -0.05558387190103531,
          0.0067297471687197685,
          -0.057354267686605453,
          0.11299234628677368,
          -0.01937362179160118,
          0.03432159870862961,
          0.36763447523117065,
          0.06279193609952927,
          -0.033402055501937866
        ],
        "zero_count": 0,
        "mean": 0.0013951720902696252,
        "std": 0.7449979186058044,
        "norm": 66.89661407470703,
        "nan_count": 0,
        "inf_count": 0
      }
    ],
    "outputs": [
      {
        "name": "layers.0.mlp.down_proj_output",
        "shape": [
          1,
          7,
          768
        ],
        "dtype": "torch.float32",
        "device": "cpu",
        "requires_grad": false,
        "numel": 5376,
        "min": -2.5645065307617188,
        "max": 2.0121209621429443,
        "first_10": [
          -0.04582834243774414,
          -0.017291147261857986,
          -0.055749066174030304,
          -0.044060878455638885,
          0.09626876562833786,
          0.03131965175271034,
          -0.008971783332526684,
          0.05209774896502495,
          -0.08086703717708588,
          -0.05818032845854759
        ],
        "last_10": [
          -0.10964630544185638,
          -0.07410191744565964,
          -0.2569091022014618,
          0.3055190443992615,
          0.3751865327358246,
          0.41724711656570435,
          -0.6931462287902832,
          -0.25841009616851807,
          -0.44807684421539307,
          0.22264385223388672
        ],
        "zero_count": 0,
        "mean": -0.0010423011844977736,
        "std": 0.16903936862945557,
        "norm": 12.393253326416016,
        "nan_count": 0,
        "inf_count": 0
      }
    ],
    "parameters": {
      "weight": {
        "name": "layers.0.mlp.down_proj_weight",
        "shape": [
          768,
          1152
        ],
        "dtype": "torch.float32",
        "device": "cpu",
        "requires_grad": true,
        "numel": 884736,
        "min": -0.0872325599193573,
        "max": 0.07664620876312256,
        "first_10": [
          0.002217522356659174,
          0.003364365082234144,
          -0.0028552310541272163,
          -0.0031933672726154327,
          0.0034336294047534466,
          -0.0011583297746255994,
          0.0004893142613582313,
          0.0003330029721837491,
          -0.0014502847334370017,
          -0.0007673419313505292
        ],
        "last_10": [
          0.003303026780486107,
          -0.0068576401099562645,
          -0.008702927269041538,
          -0.0010446953820064664,
          0.0011598898563534021,
          -0.0020495355129241943,
          0.0008530386257916689,
          -0.0005902773118577898,
          0.0010876666055992246,
          0.001065832213498652
        ],
        "zero_count": 0,
        "mean": 2.6931148422448814e-09,
        "std": 0.005318437237292528,
        "norm": 5.002492427825928,
        "nan_count": 0,
        "inf_count": 0
      }
    }
  },
  {
    "id": "015_layers.0.mlp",
    "order": 16,
    "module_name": "layers.0.mlp",
    "module_type": "Gemma3MLP",
    "module_class": "Gemma3MLP",
    "inputs": [
      {
        "name": "layers.0.mlp_input_0",
        "shape": [
          1,
          7,
          768
        ],
        "dtype": "torch.float32",
        "device": "cpu",
        "requires_grad": false,
        "numel": 5376,
        "min": -41.286861419677734,
        "max": 57.275569915771484,
        "first_10": [
          -13.582653045654297,
          -3.7471764087677,
          0.8863352537155151,
          0.11444022506475449,
          -2.1995797157287598,
          -6.0359907150268555,
          0.5376847386360168,
          -0.24647492170333862,
          2.9889302253723145,
          1.4126075506210327
        ],
        "last_10": [
          -3.3817355632781982,
          -1.2170051336288452,
          -1.5296337604522705,
          -5.592211723327637,
          4.124910831451416,
          2.755112886428833,
          -2.4754908084869385,
          40.453468322753906,
          6.582738876342773,
          -3.1498632431030273
        ],
        "zero_count": 0,
        "mean": -0.17855410277843475,
        "std": 4.892602920532227,
        "norm": 358.9370422363281,
        "nan_count": 0,
        "inf_count": 0
      }
    ],
    "outputs": [
      {
        "name": "layers.0.mlp_output",
        "shape": [
          1,
          7,
          768
        ],
        "dtype": "torch.float32",
        "device": "cpu",
        "requires_grad": false,
        "numel": 5376,
        "min": -2.5645065307617188,
        "max": 2.0121209621429443,
        "first_10": [
          -0.04582834243774414,
          -0.017291147261857986,
          -0.055749066174030304,
          -0.044060878455638885,
          0.09626876562833786,
          0.03131965175271034,
          -0.008971783332526684,
          0.05209774896502495,
          -0.08086703717708588,
          -0.05818032845854759
        ],
        "last_10": [
          -0.10964630544185638,
          -0.07410191744565964,
          -0.2569091022014618,
          0.3055190443992615,
          0.3751865327358246,
          0.41724711656570435,
          -0.6931462287902832,
          -0.25841009616851807,
          -0.44807684421539307,
          0.22264385223388672
        ],
        "zero_count": 0,
        "mean": -0.0010423011844977736,
        "std": 0.16903936862945557,
        "norm": 12.393253326416016,
        "nan_count": 0,
        "inf_count": 0
      }
    ],
    "parameters": {}
  },
  {
    "id": "016_layers.0.post_feedforward_layernorm",
    "order": 17,
    "module_name": "layers.0.post_feedforward_layernorm",
    "module_type": "Gemma3RMSNorm",
    "module_class": "Gemma3RMSNorm",
    "inputs": [
      {
        "name": "layers.0.post_feedforward_layernorm_input_0",
        "shape": [
          1,
          7,
          768
        ],
        "dtype": "torch.float32",
        "device": "cpu",
        "requires_grad": false,
        "numel": 5376,
        "min": -2.5645065307617188,
        "max": 2.0121209621429443,
        "first_10": [
          -0.04582834243774414,
          -0.017291147261857986,
          -0.055749066174030304,
          -0.044060878455638885,
          0.09626876562833786,
          0.03131965175271034,
          -0.008971783332526684,
          0.05209774896502495,
          -0.08086703717708588,
          -0.05818032845854759
        ],
        "last_10": [
          -0.10964630544185638,
          -0.07410191744565964,
          -0.2569091022014618,
          0.3055190443992615,
          0.3751865327358246,
          0.41724711656570435,
          -0.6931462287902832,
          -0.25841009616851807,
          -0.44807684421539307,
          0.22264385223388672
        ],
        "zero_count": 0,
        "mean": -0.0010423011844977736,
        "std": 0.16903936862945557,
        "norm": 12.393253326416016,
        "nan_count": 0,
        "inf_count": 0
      }
    ],
    "outputs": [
      {
        "name": "layers.0.post_feedforward_layernorm_output",
        "shape": [
          1,
          7,
          768
        ],
        "dtype": "torch.float32",
        "device": "cpu",
        "requires_grad": false,
        "numel": 5376,
        "min": -895.7335205078125,
        "max": 60.1072998046875,
        "first_10": [
          -5.018401145935059,
          -0.09892900288105011,
          -0.2165645807981491,
          -0.12747548520565033,
          0.7080104351043701,
          0.24819548428058624,
          -0.03779777139425278,
          0.19746749103069305,
          -0.46800848841667175,
          -0.4165009558200836
        ],
        "last_10": [
          -0.12543471157550812,
          -0.08793212473392487,
          -0.21500946581363678,
          0.5422981381416321,
          0.6047890782356262,
          0.7310860753059387,
          -1.208717703819275,
          -1.027296543121338,
          -0.7602019906044006,
          0.3011569380760193
        ],
        "zero_count": 0,
        "mean": -0.36648041009902954,
        "std": 14.647357940673828,
        "norm": 1074.1981201171875,
        "nan_count": 0,
        "inf_count": 0
      }
    ],
    "parameters": {
      "weight": {
        "name": "layers.0.post_feedforward_layernorm_weight",
        "shape": [
          768
        ],
        "dtype": "torch.float32",
        "device": "cpu",
        "requires_grad": true,
        "numel": 768,
        "min": -1.0210294723510742,
        "max": 85.2975082397461,
        "first_10": [
          10.105892181396484,
          -0.41974079608917236,
          -0.6060219407081604,
          -0.7065759301185608,
          -0.2541070580482483,
          -0.19629040360450745,
          -0.572722852230072,
          -0.6155862808227539,
          -0.4130455255508423,
          -0.2739574611186981
        ],
        "last_10": [
          -0.5440579652786255,
          -0.527062177658081,
          -0.666447639465332,
          -0.2925662696361542,
          -0.3575451672077179,
          -0.3016694188117981,
          -0.3049982190132141,
          0.584426999092102,
          -0.3238199055194855,
          -0.46090155839920044
        ],
        "zero_count": 0,
        "mean": 0.25620970129966736,
        "std": 3.860167980194092,
        "norm": 107.1419677734375,
        "nan_count": 0,
        "inf_count": 0
      }
    }
  },
  {
    "id": "017_layers.1.input_layernorm",
    "order": 18,
    "module_name": "layers.1.input_layernorm",
    "module_type": "Gemma3RMSNorm",
    "module_class": "Gemma3RMSNorm",
    "inputs": [
      {
        "name": "layers.1.input_layernorm_input_0",
        "shape": [
          1,
          7,
          768
        ],
        "dtype": "torch.float32",
        "device": "cpu",
        "requires_grad": false,
        "numel": 5376,
        "min": -925.9091186523438,
        "max": 62.44696807861328,
        "first_10": [
          -10.575871467590332,
          -1.4216160774230957,
          0.23408664762973785,
          -0.06988050043582916,
          -0.15055584907531738,
          -1.245653748512268,
          0.249155193567276,
          0.05820615589618683,
          0.6537845134735107,
          0.09657302498817444
        ],
        "last_10": [
          -2.3560876846313477,
          -0.7246793508529663,
          -1.190226674079895,
          -2.002446174621582,
          2.580760955810547,
          2.0388307571411133,
          -2.347499370574951,
          4.7570366859436035,
          2.366128444671631,
          -1.1294960975646973
        ],
        "zero_count": 0,
        "mean": -0.48642203211784363,
        "std": 15.329422950744629,
        "norm": 1124.4329833984375,
        "nan_count": 0,
        "inf_count": 0
      }
    ],
    "outputs": [
      {
        "name": "layers.1.input_layernorm_output",
        "shape": [
          1,
          7,
          768
        ],
        "dtype": "torch.float32",
        "device": "cpu",
        "requires_grad": false,
        "numel": 5376,
        "min": -59.097869873046875,
        "max": 48.888572692871094,
        "first_10": [
          -0.8995006084442139,
          -1.1330710649490356,
          0.20203420519828796,
          -0.06938213855028152,
          -0.09476179629564285,
          -0.9704149961471558,
          0.21648553013801575,
          0.050379183143377304,
          0.5012192130088806,
          0.0650838315486908
        ],
        "last_10": [
          -2.8999993801116943,
          -0.7886595726013184,
          -1.8072237968444824,
          -2.0880017280578613,
          2.9290380477905273,
          2.214716672897339,
          -2.6158199310302734,
          4.374491214752197,
          2.361835479736328,
          -1.3024003505706787
        ],
        "zero_count": 0,
        "mean": -0.2402469962835312,
        "std": 8.536188125610352,
        "norm": 626.0733032226562,
        "nan_count": 0,
        "inf_count": 0
      }
    ],
    "parameters": {
      "weight": {
        "name": "layers.1.input_layernorm_weight",
        "shape": [
          768
        ],
        "dtype": "torch.float32",
        "device": "cpu",
        "requires_grad": true,
        "numel": 768,
        "min": -0.47316086292266846,
        "max": 45.83300018310547,
        "first_10": [
          1.8597731590270996,
          25.799156188964844,
          28.01980972290039,
          32.383968353271484,
          20.16322898864746,
          25.194278717041016,
          28.214954376220703,
          28.102378845214844,
          24.777414321899414,
          21.660188674926758
        ],
        "last_10": [
          24.85873794555664,
          21.863595962524414,
          30.899442672729492,
          20.906391143798828,
          22.843944549560547,
          21.8211669921875,
          22.410097122192383,
          18.31932258605957,
          19.970664978027344,
          23.224822998046875
        ],
        "zero_count": 0,
        "mean": 22.233312606811523,
        "std": 6.209334373474121,
        "norm": 639.6954345703125,
        "nan_count": 0,
        "inf_count": 0
      }
    }
  },
  {
    "id": "018_layers.1.self_attn.q_proj",
    "order": 19,
    "module_name": "layers.1.self_attn.q_proj",
    "module_type": "Linear",
    "module_class": "Linear",
    "inputs": [
      {
        "name": "layers.1.self_attn.q_proj_input_0",
        "shape": [
          1,
          7,
          768
        ],
        "dtype": "torch.float32",
        "device": "cpu",
        "requires_grad": false,
        "numel": 5376,
        "min": -59.097869873046875,
        "max": 48.888572692871094,
        "first_10": [
          -0.8995006084442139,
          -1.1330710649490356,
          0.20203420519828796,
          -0.06938213855028152,
          -0.09476179629564285,
          -0.9704149961471558,
          0.21648553013801575,
          0.050379183143377304,
          0.5012192130088806,
          0.0650838315486908
        ],
        "last_10": [
          -2.8999993801116943,
          -0.7886595726013184,
          -1.8072237968444824,
          -2.0880017280578613,
          2.9290380477905273,
          2.214716672897339,
          -2.6158199310302734,
          4.374491214752197,
          2.361835479736328,
          -1.3024003505706787
        ],
        "zero_count": 0,
        "mean": -0.2402469962835312,
        "std": 8.536188125610352,
        "norm": 626.0733032226562,
        "nan_count": 0,
        "inf_count": 0
      }
    ],
    "outputs": [
      {
        "name": "layers.1.self_attn.q_proj_output",
        "shape": [
          1,
          7,
          768
        ],
        "dtype": "torch.float32",
        "device": "cpu",
        "requires_grad": false,
        "numel": 5376,
        "min": -42.128658294677734,
        "max": 37.54179763793945,
        "first_10": [
          0.6124878525733948,
          0.5231271982192993,
          -0.31129342317581177,
          0.8081249594688416,
          0.3285582363605499,
          0.8916200995445251,
          0.4114353060722351,
          0.42764490842819214,
          0.2689150869846344,
          0.05157384276390076
        ],
        "last_10": [
          0.29172056913375854,
          0.4805294871330261,
          -0.021477773785591125,
          0.33477264642715454,
          -0.3854120969772339,
          -0.2016754150390625,
          0.24495382606983185,
          0.2473474144935608,
          0.3586224913597107,
          0.09955033659934998
        ],
        "zero_count": 0,
        "mean": 0.22742979228496552,
        "std": 3.527764320373535,
        "norm": 259.17291259765625,
        "nan_count": 0,
        "inf_count": 0
      }
    ],
    "parameters": {
      "weight": {
        "name": "layers.1.self_attn.q_proj_weight",
        "shape": [
          768,
          768
        ],
        "dtype": "torch.float32",
        "device": "cpu",
        "requires_grad": true,
        "numel": 589824,
        "min": -0.11414787173271179,
        "max": 0.16062235832214355,
        "first_10": [
          0.0048868488520383835,
          0.0045542363077402115,
          -0.00191488116979599,
          -0.000948253320530057,
          0.003895760979503393,
          -0.00438606645911932,
          0.007899225689470768,
          -0.0007453974103555083,
          -0.010222862474620342,
          -0.004022672772407532
        ],
        "last_10": [
          -0.005861830897629261,
          0.0035666688345372677,
          0.0028608455322682858,
          0.005950835067778826,
          -0.0014492106856778264,
          0.012894945219159126,
          -0.005463242065161467,
          -0.010338779538869858,
          0.001413947669789195,
          -0.0007010415429249406
        ],
        "zero_count": 0,
        "mean": -2.6251545932609588e-05,
        "std": 0.00791854690760374,
        "norm": 6.081441402435303,
        "nan_count": 0,
        "inf_count": 0
      }
    }
  },
  {
    "id": "019_layers.1.self_attn.k_proj",
    "order": 20,
    "module_name": "layers.1.self_attn.k_proj",
    "module_type": "Linear",
    "module_class": "Linear",
    "inputs": [
      {
        "name": "layers.1.self_attn.k_proj_input_0",
        "shape": [
          1,
          7,
          768
        ],
        "dtype": "torch.float32",
        "device": "cpu",
        "requires_grad": false,
        "numel": 5376,
        "min": -59.097869873046875,
        "max": 48.888572692871094,
        "first_10": [
          -0.8995006084442139,
          -1.1330710649490356,
          0.20203420519828796,
          -0.06938213855028152,
          -0.09476179629564285,
          -0.9704149961471558,
          0.21648553013801575,
          0.050379183143377304,
          0.5012192130088806,
          0.0650838315486908
        ],
        "last_10": [
          -2.8999993801116943,
          -0.7886595726013184,
          -1.8072237968444824,
          -2.0880017280578613,
          2.9290380477905273,
          2.214716672897339,
          -2.6158199310302734,
          4.374491214752197,
          2.361835479736328,
          -1.3024003505706787
        ],
        "zero_count": 0,
        "mean": -0.2402469962835312,
        "std": 8.536188125610352,
        "norm": 626.0733032226562,
        "nan_count": 0,
        "inf_count": 0
      }
    ],
    "outputs": [
      {
        "name": "layers.1.self_attn.k_proj_output",
        "shape": [
          1,
          7,
          256
        ],
        "dtype": "torch.float32",
        "device": "cpu",
        "requires_grad": false,
        "numel": 1792,
        "min": -21.35112762451172,
        "max": 18.183738708496094,
        "first_10": [
          -0.029512323439121246,
          0.0036770999431610107,
          -0.022987838834524155,
          -0.07440949976444244,
          0.0337701290845871,
          -0.13090761005878448,
          -0.05024230480194092,
          -0.02097412943840027,
          -0.03171498700976372,
          0.03588118404150009
        ],
        "last_10": [
          0.4185788333415985,
          -0.1796785295009613,
          0.4933841824531555,
          1.1130009889602661,
          0.5604655146598816,
          0.1016218364238739,
          0.12205003201961517,
          0.5053402781486511,
          0.5786342620849609,
          -0.15862073004245758
        ],
        "zero_count": 0,
        "mean": 0.17757977545261383,
        "std": 2.9525699615478516,
        "norm": 125.17930603027344,
        "nan_count": 0,
        "inf_count": 0
      }
    ],
    "parameters": {
      "weight": {
        "name": "layers.1.self_attn.k_proj_weight",
        "shape": [
          256,
          768
        ],
        "dtype": "torch.float32",
        "device": "cpu",
        "requires_grad": true,
        "numel": 196608,
        "min": -0.07016841322183609,
        "max": 0.07677289098501205,
        "first_10": [
          0.00643489696085453,
          0.0038983451668173075,
          -0.0041520195081830025,
          -0.006401365622878075,
          0.00037151333526708186,
          -0.00602335948497057,
          -0.007073783315718174,
          -0.0007642700802534819,
          -0.00442845281213522,
          -0.006643814966082573
        ],
        "last_10": [
          -0.010391013696789742,
          0.015848729759454727,
          0.00983209814876318,
          0.013724684715270996,
          0.005474470090121031,
          0.0022206464782357216,
          -0.007479607593268156,
          -0.0011443664552643895,
          -0.011949324980378151,
          -0.0027174013666808605
        ],
        "zero_count": 0,
        "mean": -2.466099067532923e-05,
        "std": 0.007284738589078188,
        "norm": 3.2300965785980225,
        "nan_count": 0,
        "inf_count": 0
      }
    }
  },
  {
    "id": "020_layers.1.self_attn.v_proj",
    "order": 21,
    "module_name": "layers.1.self_attn.v_proj",
    "module_type": "Linear",
    "module_class": "Linear",
    "inputs": [
      {
        "name": "layers.1.self_attn.v_proj_input_0",
        "shape": [
          1,
          7,
          768
        ],
        "dtype": "torch.float32",
        "device": "cpu",
        "requires_grad": false,
        "numel": 5376,
        "min": -59.097869873046875,
        "max": 48.888572692871094,
        "first_10": [
          -0.8995006084442139,
          -1.1330710649490356,
          0.20203420519828796,
          -0.06938213855028152,
          -0.09476179629564285,
          -0.9704149961471558,
          0.21648553013801575,
          0.050379183143377304,
          0.5012192130088806,
          0.0650838315486908
        ],
        "last_10": [
          -2.8999993801116943,
          -0.7886595726013184,
          -1.8072237968444824,
          -2.0880017280578613,
          2.9290380477905273,
          2.214716672897339,
          -2.6158199310302734,
          4.374491214752197,
          2.361835479736328,
          -1.3024003505706787
        ],
        "zero_count": 0,
        "mean": -0.2402469962835312,
        "std": 8.536188125610352,
        "norm": 626.0733032226562,
        "nan_count": 0,
        "inf_count": 0
      }
    ],
    "outputs": [
      {
        "name": "layers.1.self_attn.v_proj_output",
        "shape": [
          1,
          7,
          256
        ],
        "dtype": "torch.float32",
        "device": "cpu",
        "requires_grad": false,
        "numel": 1792,
        "min": -12.50191593170166,
        "max": 10.373538970947266,
        "first_10": [
          -0.00632987916469574,
          -0.13523229956626892,
          -0.05910938233137131,
          0.06699798256158829,
          -0.06367265433073044,
          -0.018030205741524696,
          0.2024754285812378,
          -0.005681876093149185,
          -0.03216393291950226,
          0.30808958411216736
        ],
        "last_10": [
          0.024603724479675293,
          0.07117131352424622,
          -0.1273249089717865,
          0.1884080022573471,
          0.24171674251556396,
          -1.0228400230407715,
          0.45299115777015686,
          -0.27653610706329346,
          0.24216628074645996,
          -0.010611675679683685
        ],
        "zero_count": 0,
        "mean": -0.021767212077975273,
        "std": 1.9591988325119019,
        "norm": 82.9188232421875,
        "nan_count": 0,
        "inf_count": 0
      }
    ],
    "parameters": {
      "weight": {
        "name": "layers.1.self_attn.v_proj_weight",
        "shape": [
          256,
          768
        ],
        "dtype": "torch.float32",
        "device": "cpu",
        "requires_grad": true,
        "numel": 196608,
        "min": -0.04653972014784813,
        "max": 0.056652382016181946,
        "first_10": [
          -0.0032568140886723995,
          -0.002465425292029977,
          0.00039303814992308617,
          -0.012401532381772995,
          0.016265377402305603,
          -0.0017657808493822813,
          0.005714076105505228,
          -0.007654632907360792,
          -0.0029385779052972794,
          0.000394180795410648
        ],
        "last_10": [
          0.010766510851681232,
          0.0016211888287216425,
          0.014631275087594986,
          0.006677553988993168,
          -0.003602298442274332,
          0.007937799207866192,
          9.486012277193367e-05,
          -0.006704891100525856,
          -0.012723654508590698,
          -0.0024164188653230667
        ],
        "zero_count": 0,
        "mean": 6.963186478969874e-06,
        "std": 0.007502139545977116,
        "norm": 3.326475143432617,
        "nan_count": 0,
        "inf_count": 0
      }
    }
  },
  {
    "id": "021_layers.1.self_attn.q_norm",
    "order": 22,
    "module_name": "layers.1.self_attn.q_norm",
    "module_type": "Gemma3RMSNorm",
    "module_class": "Gemma3RMSNorm",
    "inputs": [
      {
        "name": "layers.1.self_attn.q_norm_input_0",
        "shape": [
          1,
          3,
          7,
          256
        ],
        "dtype": "torch.float32",
        "device": "cpu",
        "requires_grad": false,
        "numel": 5376,
        "min": -42.128658294677734,
        "max": 37.54179763793945,
        "first_10": [
          0.6124878525733948,
          0.5231271982192993,
          -0.31129342317581177,
          0.8081249594688416,
          0.3285582363605499,
          0.8916200995445251,
          0.4114353060722351,
          0.42764490842819214,
          0.2689150869846344,
          0.05157384276390076
        ],
        "last_10": [
          0.29172056913375854,
          0.4805294871330261,
          -0.021477773785591125,
          0.33477264642715454,
          -0.3854120969772339,
          -0.2016754150390625,
          0.24495382606983185,
          0.2473474144935608,
          0.3586224913597107,
          0.09955033659934998
        ],
        "zero_count": 0,
        "mean": 0.22742979228496552,
        "std": 3.527764320373535,
        "norm": 259.17291259765625,
        "nan_count": 0,
        "inf_count": 0
      }
    ],
    "outputs": [
      {
        "name": "layers.1.self_attn.q_norm_output",
        "shape": [
          1,
          3,
          7,
          256
        ],
        "dtype": "torch.float32",
        "device": "cpu",
        "requires_grad": false,
        "numel": 5376,
        "min": -7.142577171325684,
        "max": 14.644821166992188,
        "first_10": [
          4.009385108947754,
          2.043389081954956,
          -1.5297473669052124,
          3.0244038105010986,
          1.783223271369934,
          2.8866612911224365,
          1.9713298082351685,
          1.7137842178344727,
          1.295831561088562,
          0.25581657886505127
        ],
        "last_10": [
          0.9689206480979919,
          1.732717752456665,
          -0.08676992356777191,
          1.0620428323745728,
          -1.5582120418548584,
          -0.7226658463478088,
          0.9391295909881592,
          0.9531855583190918,
          1.277065396308899,
          0.35076236724853516
        ],
        "zero_count": 0,
        "mean": 0.16521859169006348,
        "std": 1.6779166460037231,
        "norm": 123.6104736328125,
        "nan_count": 0,
        "inf_count": 0
      }
    ],
    "parameters": {
      "weight": {
        "name": "layers.1.self_attn.q_norm_weight",
        "shape": [
          256
        ],
        "dtype": "torch.float32",
        "device": "cpu",
        "requires_grad": true,
        "numel": 256,
        "min": -1.5550527572631836,
        "max": 2.9345686435699463,
        "first_10": [
          2.261998176574707,
          0.9464675188064575,
          1.4487991333007812,
          0.8649390935897827,
          1.70456063747406,
          0.6133158802986145,
          1.3875975608825684,
          0.9969915747642517,
          1.4012467861175537,
          1.4717389345169067
        ],
        "last_10": [
          1.1844652891159058,
          1.3715473413467407,
          1.6570758819580078,
          1.0864887237548828,
          1.6590421199798584,
          1.3567231893539429,
          1.5215368270874023,
          1.5345103740692139,
          1.3420687913894653,
          1.3173643350601196
        ],
        "zero_count": 0,
        "mean": 1.3039813041687012,
        "std": 0.6321729421615601,
        "norm": 23.177637100219727,
        "nan_count": 0,
        "inf_count": 0
      }
    }
  },
  {
    "id": "022_layers.1.self_attn.k_norm",
    "order": 23,
    "module_name": "layers.1.self_attn.k_norm",
    "module_type": "Gemma3RMSNorm",
    "module_class": "Gemma3RMSNorm",
    "inputs": [
      {
        "name": "layers.1.self_attn.k_norm_input_0",
        "shape": [
          1,
          1,
          7,
          256
        ],
        "dtype": "torch.float32",
        "device": "cpu",
        "requires_grad": false,
        "numel": 1792,
        "min": -21.35112762451172,
        "max": 18.183738708496094,
        "first_10": [
          -0.029512323439121246,
          0.0036770999431610107,
          -0.022987838834524155,
          -0.07440949976444244,
          0.0337701290845871,
          -0.13090761005878448,
          -0.05024230480194092,
          -0.02097412943840027,
          -0.03171498700976372,
          0.03588118404150009
        ],
        "last_10": [
          0.4185788333415985,
          -0.1796785295009613,
          0.4933841824531555,
          1.1130009889602661,
          0.5604655146598816,
          0.1016218364238739,
          0.12205003201961517,
          0.5053402781486511,
          0.5786342620849609,
          -0.15862073004245758
        ],
        "zero_count": 0,
        "mean": 0.17757977545261383,
        "std": 2.9525699615478516,
        "norm": 125.17930603027344,
        "nan_count": 0,
        "inf_count": 0
      }
    ],
    "outputs": [
      {
        "name": "layers.1.self_attn.k_norm_output",
        "shape": [
          1,
          1,
          7,
          256
        ],
        "dtype": "torch.float32",
        "device": "cpu",
        "requires_grad": false,
        "numel": 1792,
        "min": -8.634251594543457,
        "max": 19.325090408325195,
        "first_10": [
          -0.028727121651172638,
          0.006577483378350735,
          -0.0449017733335495,
          -0.1285410076379776,
          0.06847850233316422,
          -0.16799931228160858,
          -0.1169901117682457,
          -0.033375561237335205,
          -0.07938093692064285,
          0.07487687468528748
        ],
        "last_10": [
          0.7815216779708862,
          -0.29819104075431824,
          0.7150827646255493,
          2.049163341522217,
          0.8346467018127441,
          0.17153921723365784,
          0.18646255135536194,
          0.8000037670135498,
          0.956226110458374,
          -0.27630114555358887
        ],
        "zero_count": 0,
        "mean": 0.15681038796901703,
        "std": 1.9574916362762451,
        "norm": 83.10698699951172,
        "nan_count": 0,
        "inf_count": 0
      }
    ],
    "parameters": {
      "weight": {
        "name": "layers.1.self_attn.k_norm_weight",
        "shape": [
          256
        ],
        "dtype": "torch.float32",
        "device": "cpu",
        "requires_grad": true,
        "numel": 256,
        "min": -1.0046157836914062,
        "max": 22.989171981811523,
        "first_10": [
          -0.10979937016963959,
          0.6358879208564758,
          0.7863416075706482,
          0.5798379182815552,
          0.8544740676879883,
          0.17365868389606476,
          1.1295057535171509,
          0.45527082681655884,
          1.2890267372131348,
          0.908447265625
        ],
        "last_10": [
          1.7493603229522705,
          1.4438035488128662,
          1.1342189311981201,
          1.7111210823059082,
          1.192914605140686,
          1.4856746196746826,
          1.249684453010559,
          1.3311810493469238,
          1.4334608316421509,
          1.565019130706787
        ],
        "zero_count": 0,
        "mean": 1.4094854593276978,
        "std": 1.6250325441360474,
        "norm": 34.37976837158203,
        "nan_count": 0,
        "inf_count": 0
      }
    }
  },
  {
    "id": "023_layers.1.self_attn.o_proj",
    "order": 24,
    "module_name": "layers.1.self_attn.o_proj",
    "module_type": "Linear",
    "module_class": "Linear",
    "inputs": [
      {
        "name": "layers.1.self_attn.o_proj_input_0",
        "shape": [
          1,
          7,
          768
        ],
        "dtype": "torch.float32",
        "device": "cpu",
        "requires_grad": false,
        "numel": 5376,
        "min": -12.469557762145996,
        "max": 10.26162338256836,
        "first_10": [
          -0.00632987916469574,
          -0.13523229956626892,
          -0.05910938233137131,
          0.06699798256158829,
          -0.06367265433073044,
          -0.018030205741524696,
          0.2024754285812378,
          -0.005681876093149185,
          -0.03216393291950226,
          0.30808958411216736
        ],
        "last_10": [
          0.04616662114858627,
          -0.007932167500257492,
          -0.03748765215277672,
          0.035884931683540344,
          0.038612913340330124,
          -0.6513183116912842,
          0.10659945011138916,
          -0.09423140436410904,
          0.4220597743988037,
          0.03893042355775833
        ],
        "zero_count": 0,
        "mean": 0.02762235887348652,
        "std": 0.8154540061950684,
        "norm": 59.81881332397461,
        "nan_count": 0,
        "inf_count": 0
      }
    ],
    "outputs": [
      {
        "name": "layers.1.self_attn.o_proj_output",
        "shape": [
          1,
          7,
          768
        ],
        "dtype": "torch.float32",
        "device": "cpu",
        "requires_grad": false,
        "numel": 5376,
        "min": -5.657238960266113,
        "max": 5.594860076904297,
        "first_10": [
          -0.03845176845788956,
          -0.06503398716449738,
          0.2212992012500763,
          0.12925636768341064,
          -0.055878646671772,
          -0.13894006609916687,
          -0.16007213294506073,
          -0.280428022146225,
          -0.06990984082221985,
          0.16293013095855713
        ],
        "last_10": [
          0.4090411365032196,
          -0.05258294194936752,
          0.2331312894821167,
          -0.14305217564105988,
          -0.0436706505715847,
          -0.2093750536441803,
          -0.203327476978302,
          -0.1739659309387207,
          -0.05422750487923622,
          -0.5052568912506104
        ],
        "zero_count": 0,
        "mean": 0.015939047560095787,
        "std": 0.41408655047416687,
        "norm": 30.380990982055664,
        "nan_count": 0,
        "inf_count": 0
      }
    ],
    "parameters": {
      "weight": {
        "name": "layers.1.self_attn.o_proj_weight",
        "shape": [
          768,
          768
        ],
        "dtype": "torch.float32",
        "device": "cpu",
        "requires_grad": true,
        "numel": 589824,
        "min": -0.06229934096336365,
        "max": 0.062171731144189835,
        "first_10": [
          0.009873507544398308,
          0.004738521296530962,
          -0.012467284686863422,
          -0.003922922071069479,
          0.007432678248733282,
          -0.001872678054496646,
          0.007788657210767269,
          0.0036268788389861584,
          -0.0016258261166512966,
          -0.007891411893069744
        ],
        "last_10": [
          0.002247951226308942,
          -0.004708367399871349,
          0.0016368161886930466,
          -0.0054846336133778095,
          0.005056409630924463,
          0.013429014012217522,
          -0.007816482335329056,
          0.003023565746843815,
          -0.00197984860278666,
          0.012326634488999844
        ],
        "zero_count": 0,
        "mean": -1.1674107554426882e-05,
        "std": 0.0077870069071650505,
        "norm": 5.980396747589111,
        "nan_count": 0,
        "inf_count": 0
      }
    }
  },
  {
    "id": "024_layers.1.self_attn",
    "order": 25,
    "module_name": "layers.1.self_attn",
    "module_type": "Gemma3Attention",
    "module_class": "Gemma3Attention",
    "inputs": [],
    "outputs": [
      {
        "name": "layers.1.self_attn_output_0",
        "shape": [
          1,
          7,
          768
        ],
        "dtype": "torch.float32",
        "device": "cpu",
        "requires_grad": false,
        "numel": 5376,
        "min": -5.657238960266113,
        "max": 5.594860076904297,
        "first_10": [
          -0.03845176845788956,
          -0.06503398716449738,
          0.2212992012500763,
          0.12925636768341064,
          -0.055878646671772,
          -0.13894006609916687,
          -0.16007213294506073,
          -0.280428022146225,
          -0.06990984082221985,
          0.16293013095855713
        ],
        "last_10": [
          0.4090411365032196,
          -0.05258294194936752,
          0.2331312894821167,
          -0.14305217564105988,
          -0.0436706505715847,
          -0.2093750536441803,
          -0.203327476978302,
          -0.1739659309387207,
          -0.05422750487923622,
          -0.5052568912506104
        ],
        "zero_count": 0,
        "mean": 0.015939047560095787,
        "std": 0.41408655047416687,
        "norm": 30.380990982055664,
        "nan_count": 0,
        "inf_count": 0
      }
    ],
    "parameters": {}
  },
  {
    "id": "025_layers.1.post_attention_layernorm",
    "order": 26,
    "module_name": "layers.1.post_attention_layernorm",
    "module_type": "Gemma3RMSNorm",
    "module_class": "Gemma3RMSNorm",
    "inputs": [
      {
        "name": "layers.1.post_attention_layernorm_input_0",
        "shape": [
          1,
          7,
          768
        ],
        "dtype": "torch.float32",
        "device": "cpu",
        "requires_grad": false,
        "numel": 5376,
        "min": -5.657238960266113,
        "max": 5.594860076904297,
        "first_10": [
          -0.03845176845788956,
          -0.06503398716449738,
          0.2212992012500763,
          0.12925636768341064,
          -0.055878646671772,
          -0.13894006609916687,
          -0.16007213294506073,
          -0.280428022146225,
          -0.06990984082221985,
          0.16293013095855713
        ],
        "last_10": [
          0.4090411365032196,
          -0.05258294194936752,
          0.2331312894821167,
          -0.14305217564105988,
          -0.0436706505715847,
          -0.2093750536441803,
          -0.203327476978302,
          -0.1739659309387207,
          -0.05422750487923622,
          -0.5052568912506104
        ],
        "zero_count": 0,
        "mean": 0.015939047560095787,
        "std": 0.41408655047416687,
        "norm": 30.380990982055664,
        "nan_count": 0,
        "inf_count": 0
      }
    ],
    "outputs": [
      {
        "name": "layers.1.post_attention_layernorm_output",
        "shape": [
          1,
          7,
          768
        ],
        "dtype": "torch.float32",
        "device": "cpu",
        "requires_grad": false,
        "numel": 5376,
        "min": -238.0830535888672,
        "max": 125.01239776611328,
        "first_10": [
          -1.273963451385498,
          -0.15359070897102356,
          0.3613540232181549,
          0.20257557928562164,
          -0.14524546265602112,
          -0.27656200528144836,
          -0.21255281567573547,
          -0.45935818552970886,
          -0.15347011387348175,
          0.4855777621269226
        ],
        "last_10": [
          0.3562525510787964,
          -0.041807252913713455,
          0.1714819371700287,
          -0.26884692907333374,
          -0.04543168470263481,
          -0.3040570318698883,
          -0.2657511532306671,
          -0.546119213104248,
          -0.06792004406452179,
          -0.5033805966377258
        ],
        "zero_count": 0,
        "mean": -0.18730680644512177,
        "std": 8.121753692626953,
        "norm": 595.5996704101562,
        "nan_count": 0,
        "inf_count": 0
      }
    ],
    "parameters": {
      "weight": {
        "name": "layers.1.post_attention_layernorm_weight",
        "shape": [
          768
        ],
        "dtype": "torch.float32",
        "device": "cpu",
        "requires_grad": true,
        "numel": 768,
        "min": -1.0424084663391113,
        "max": 203.99411010742188,
        "first_10": [
          9.916991233825684,
          -0.22180786728858948,
          -0.46195900440216064,
          -0.4835866689682007,
          -0.1435164511203766,
          -0.34411564469337463,
          -0.5624643564224243,
          -0.4602503776550293,
          -0.2766510844230652,
          -0.017981447279453278
        ],
        "last_10": [
          -0.4648579955101013,
          -0.5114772319793701,
          -0.5480443239212036,
          0.1547517329454422,
          -0.3607846200466156,
          -0.10770567506551743,
          -0.19692309200763702,
          0.928862452507019,
          -0.23041537404060364,
          -0.3878437876701355
        ],
        "zero_count": 0,
        "mean": 0.7201337814331055,
        "std": 7.905872344970703,
        "norm": 219.85887145996094,
        "nan_count": 0,
        "inf_count": 0
      }
    }
  },
  {
    "id": "026_layers.1.pre_feedforward_layernorm",
    "order": 27,
    "module_name": "layers.1.pre_feedforward_layernorm",
    "module_type": "Gemma3RMSNorm",
    "module_class": "Gemma3RMSNorm",
    "inputs": [
      {
        "name": "layers.1.pre_feedforward_layernorm_input_0",
        "shape": [
          1,
          7,
          768
        ],
        "dtype": "torch.float32",
        "device": "cpu",
        "requires_grad": false,
        "numel": 5376,
        "min": -1069.1123046875,
        "max": 133.25865173339844,
        "first_10": [
          -11.849834442138672,
          -1.5752067565917969,
          0.595440685749054,
          0.13269507884979248,
          -0.2958013117313385,
          -1.522215723991394,
          0.03660237789154053,
          -0.40115201473236084,
          0.5003144145011902,
          0.5821508169174194
        ],
        "last_10": [
          -1.9998351335525513,
          -0.7664865851402283,
          -1.018744707107544,
          -2.2712931632995605,
          2.5353293418884277,
          1.7347737550735474,
          -2.613250494003296,
          4.2109174728393555,
          2.298208475112915,
          -1.6328766345977783
        ],
        "zero_count": 0,
        "mean": -0.6737287640571594,
        "std": 19.89722442626953,
        "norm": 1459.5889892578125,
        "nan_count": 0,
        "inf_count": 0
      }
    ],
    "outputs": [
      {
        "name": "layers.1.pre_feedforward_layernorm_output",
        "shape": [
          1,
          7,
          768
        ],
        "dtype": "torch.float32",
        "device": "cpu",
        "requires_grad": false,
        "numel": 5376,
        "min": -17.528139114379883,
        "max": 11.593857765197754,
        "first_10": [
          -0.7466881275177002,
          -0.6794275641441345,
          0.16748155653476715,
          0.03856533020734787,
          -0.11932671815156937,
          -0.7656273245811462,
          0.009348885156214237,
          -0.11248935014009476,
          0.22293013334274292,
          0.2472446709871292
        ],
        "last_10": [
          -0.9212725162506104,
          -0.39411190152168274,
          -0.4617830216884613,
          -1.415812611579895,
          1.6921372413635254,
          1.1308547258377075,
          -1.628305435180664,
          3.2818429470062256,
          1.4289218187332153,
          -1.1005653142929077
        ],
        "zero_count": 0,
        "mean": -0.020970633253455162,
        "std": 2.0159952640533447,
        "norm": 147.8094482421875,
        "nan_count": 0,
        "inf_count": 0
      }
    ],
    "parameters": {
      "weight": {
        "name": "layers.1.pre_feedforward_layernorm_weight",
        "shape": [
          768
        ],
        "dtype": "torch.float32",
        "device": "cpu",
        "requires_grad": true,
        "numel": 768,
        "min": -1.0021389722824097,
        "max": 29.803760528564453,
        "first_10": [
          1.464638352394104,
          15.870649337768555,
          10.001569747924805,
          10.36759090423584,
          14.778430938720703,
          18.672855377197266,
          8.99025821685791,
          9.968029975891113,
          16.428176879882812,
          15.611835479736328
        ],
        "last_10": [
          10.787636756896973,
          12.15672492980957,
          10.59859561920166,
          14.950172424316406,
          16.077880859375,
          15.680028915405273,
          14.943645477294922,
          18.942237854003906,
          14.90932846069336,
          16.246273040771484
        ],
        "zero_count": 0,
        "mean": 13.71651554107666,
        "std": 3.8950467109680176,
        "norm": 395.1330871582031,
        "nan_count": 0,
        "inf_count": 0
      }
    }
  },
  {
    "id": "027_layers.1.mlp.gate_proj",
    "order": 28,
    "module_name": "layers.1.mlp.gate_proj",
    "module_type": "Linear",
    "module_class": "Linear",
    "inputs": [
      {
        "name": "layers.1.mlp.gate_proj_input_0",
        "shape": [
          1,
          7,
          768
        ],
        "dtype": "torch.float32",
        "device": "cpu",
        "requires_grad": false,
        "numel": 5376,
        "min": -17.528139114379883,
        "max": 11.593857765197754,
        "first_10": [
          -0.7466881275177002,
          -0.6794275641441345,
          0.16748155653476715,
          0.03856533020734787,
          -0.11932671815156937,
          -0.7656273245811462,
          0.009348885156214237,
          -0.11248935014009476,
          0.22293013334274292,
          0.2472446709871292
        ],
        "last_10": [
          -0.9212725162506104,
          -0.39411190152168274,
          -0.4617830216884613,
          -1.415812611579895,
          1.6921372413635254,
          1.1308547258377075,
          -1.628305435180664,
          3.2818429470062256,
          1.4289218187332153,
          -1.1005653142929077
        ],
        "zero_count": 0,
        "mean": -0.020970633253455162,
        "std": 2.0159952640533447,
        "norm": 147.8094482421875,
        "nan_count": 0,
        "inf_count": 0
      }
    ],
    "outputs": [
      {
        "name": "layers.1.mlp.gate_proj_output",
        "shape": [
          1,
          7,
          1152
        ],
        "dtype": "torch.float32",
        "device": "cpu",
        "requires_grad": false,
        "numel": 8064,
        "min": -1.4969425201416016,
        "max": 2.1510517597198486,
        "first_10": [
          -0.07127414643764496,
          0.01362256146967411,
          -0.048374563455581665,
          -0.0974014475941658,
          -0.11092638224363327,
          -0.05410915985703468,
          0.06660674512386322,
          -0.054953113198280334,
          0.20188869535923004,
          0.04545402526855469
        ],
        "last_10": [
          -0.12045767903327942,
          -0.39974474906921387,
          0.2644624710083008,
          -0.19441068172454834,
          -0.2604334056377411,
          -0.21609994769096375,
          0.16585807502269745,
          -0.24325817823410034,
          -0.1319679468870163,
          -0.12777209281921387
        ],
        "zero_count": 0,
        "mean": -0.1202746257185936,
        "std": 0.3355528712272644,
        "norm": 32.00801467895508,
        "nan_count": 0,
        "inf_count": 0
      }
    ],
    "parameters": {
      "weight": {
        "name": "layers.1.mlp.gate_proj_weight",
        "shape": [
          1152,
          768
        ],
        "dtype": "torch.float32",
        "device": "cpu",
        "requires_grad": true,
        "numel": 884736,
        "min": -0.05533532798290253,
        "max": 0.0708853155374527,
        "first_10": [
          0.019699599593877792,
          -0.0015209177508950233,
          0.0058969417586922646,
          -0.0061547174118459225,
          0.004222312942147255,
          0.012663009576499462,
          -0.0007701860158704221,
          -0.0051091136410832405,
          0.010716141201555729,
          0.000388076005037874
        ],
        "last_10": [
          -0.00020636070985347033,
          -0.00775020569562912,
          0.0017179751303046942,
          0.005448374897241592,
          0.005358359310775995,
          -0.0008987224427983165,
          0.0027715961914509535,
          0.00045893629430793226,
          0.009841017425060272,
          0.01042204350233078
        ],
        "zero_count": 0,
        "mean": 7.49561695556622e-06,
        "std": 0.005360315553843975,
        "norm": 5.0418901443481445,
        "nan_count": 0,
        "inf_count": 0
      }
    }
  },
  {
    "id": "028_layers.1.mlp.act_fn",
    "order": 29,
    "module_name": "layers.1.mlp.act_fn",
    "module_type": "PytorchGELUTanh",
    "module_class": "PytorchGELUTanh",
    "inputs": [
      {
        "name": "layers.1.mlp.act_fn_input_0",
        "shape": [
          1,
          7,
          1152
        ],
        "dtype": "torch.float32",
        "device": "cpu",
        "requires_grad": false,
        "numel": 8064,
        "min": -1.4969425201416016,
        "max": 2.1510517597198486,
        "first_10": [
          -0.07127414643764496,
          0.01362256146967411,
          -0.048374563455581665,
          -0.0974014475941658,
          -0.11092638224363327,
          -0.05410915985703468,
          0.06660674512386322,
          -0.054953113198280334,
          0.20188869535923004,
          0.04545402526855469
